{"learner":{"attributes":{"scikit_learn":"{\"_estimator_type\": \"regressor\"}"},"feature_names":["total_sqft","bath","bhk","1st Block Jayanagar","1st Phase JP Nagar","2nd Phase Judicial Layout","2nd Stage Nagarbhavi","5th Block Hbr Layout","5th Phase JP Nagar","6th Phase JP Nagar","7th Phase JP Nagar","8th Phase JP Nagar","9th Phase JP Nagar","AECS Layout","Abbigere","Akshaya Nagar","Ambalipura","Ambedkar Nagar","Amruthahalli","Anandapura","Ananth Nagar","Anekal","Anjanapura","Ardendale","Arekere","Attibele","BEML Layout","BTM 2nd Stage","BTM Layout","Babusapalaya","Badavala Nagar","Balagere","Banashankari","Banashankari Stage II","Banashankari Stage III","Banashankari Stage V","Banashankari Stage VI","Banaswadi","Banjara Layout","Bannerghatta","Bannerghatta Road","Basavangudi","Basaveshwara Nagar","Battarahalli","Begur","Begur Road","Bellandur","Benson Town","Bharathi Nagar","Bhoganhalli","Billekahalli","Binny Pete","Bisuvanahalli","Bommanahalli","Bommasandra","Bommasandra Industrial Area","Bommenahalli","Brookefield","Budigere","CV Raman Nagar","Chamrajpet","Chandapura","Channasandra","Chikka Tirupathi","Chikkabanavar","Chikkalasandra","Choodasandra","Cooke Town","Cox Town","Cunningham Road","Dasanapura","Dasarahalli","Devanahalli","Devarachikkanahalli","Dodda Nekkundi","Doddaballapur","Doddakallasandra","Doddathoguru","Domlur","Dommasandra","EPIP Zone","Electronic City","Electronic City Phase II","Electronics City Phase 1","Frazer Town","GM Palaya","Garudachar Palya","Giri Nagar","Gollarapalya Hosahalli","Gottigere","Green Glen Layout","Gubbalala","Gunjur","HAL 2nd Stage","HBR Layout","HRBR Layout","HSR Layout","Haralur Road","Harlur","Hebbal","Hebbal Kempapura","Hegde Nagar","Hennur","Hennur Road","Hoodi","Horamavu Agara","Horamavu Banaswadi","Hormavu","Hosa Road","Hosakerehalli","Hoskote","Hosur Road","Hulimavu","ISRO Layout","ITPL","Iblur Village","Indira Nagar","JP Nagar","Jakkur","Jalahalli","Jalahalli East","Jigani","Judicial Layout","KR Puram","Kadubeesanahalli","Kadugodi","Kaggadasapura","Kaggalipura","Kaikondrahalli","Kalena Agrahara","Kalyan nagar","Kambipura","Kammanahalli","Kammasandra","Kanakapura","Kanakpura Road","Kannamangala","Karuna Nagar","Kasavanhalli","Kasturi Nagar","Kathriguppe","Kaval Byrasandra","Kenchenahalli","Kengeri","Kengeri Satellite Town","Kereguddadahalli","Kodichikkanahalli","Kodigehaali","Kodigehalli","Kodihalli","Kogilu","Konanakunte","Koramangala","Kothannur","Kothanur","Kudlu","Kudlu Gate","Kumaraswami Layout","Kundalahalli","LB Shastri Nagar","Laggere","Lakshminarayana Pura","Lingadheeranahalli","Magadi Road","Mahadevpura","Mahalakshmi Layout","Mallasandra","Malleshpalya","Malleshwaram","Marathahalli","Margondanahalli","Marsur","Mico Layout","Munnekollal","Murugeshpalya","Mysore Road","NGR Layout","NRI Layout","Nagarbhavi","Nagasandra","Nagavara","Nagavarapalya","Narayanapura","Neeladri Nagar","Nehru Nagar","OMBR Layout","Old Airport Road","Old Madras Road","Padmanabhanagar","Pai Layout","Panathur","Parappana Agrahara","Pattandur Agrahara","Poorna Pragna Layout","Prithvi Layout","R.T. Nagar","Rachenahalli","Raja Rajeshwari Nagar","Rajaji Nagar","Rajiv Nagar","Ramagondanahalli","Ramamurthy Nagar","Rayasandra","Sahakara Nagar","Sanjay nagar","Sarakki Nagar","Sarjapur","Sarjapur  Road","Sarjapura - Attibele Road","Sector 2 HSR Layout","Sector 7 HSR Layout","Seegehalli","Shampura","Shivaji Nagar","Singasandra","Somasundara Palya","Sompura","Sonnenahalli","Subramanyapura","Sultan Palaya","TC Palaya","Talaghattapura","Thanisandra","Thigalarapalya","Thubarahalli","Thyagaraja Nagar","Tindlu","Tumkur Road","Ulsoor","Uttarahalli","Varthur","Varthur Road","Vasanthapura","Vidyaranyapura","Vijayanagar","Vishveshwarya Layout","Vishwapriya Layout","Vittasandra","Whitefield","Yelachenahalli","Yelahanka","Yelahanka New Town","Yelenahalli","Yeshwanthpur"],"feature_types":["float","float","int","int","int","int","int","int","int","int","int","int","int","int","int","int","int","int","int","int","int","int","int","int","int","int","int","int","int","int","int","int","int","int","int","int","int","int","int","int","int","int","int","int","int","int","int","int","int","int","int","int","int","int","int","int","int","int","int","int","int","int","int","int","int","int","int","int","int","int","int","int","int","int","int","int","int","int","int","int","int","int","int","int","int","int","int","int","int","int","int","int","int","int","int","int","int","int","int","int","int","int","int","int","int","int","int","int","int","int","int","int","int","int","int","int","int","int","int","int","int","int","int","int","int","int","int","int","int","int","int","int","int","int","int","int","int","int","int","int","int","int","int","int","int","int","int","int","int","int","int","int","int","int","int","int","int","int","int","int","int","int","int","int","int","int","int","int","int","int","int","int","int","int","int","int","int","int","int","int","int","int","int","int","int","int","int","int","int","int","int","int","int","int","int","int","int","int","int","int","int","int","int","int","int","int","int","int","int","int","int","int","int","int","int","int","int","int","int","int","int","int","int","int","int","int","int","int","int","int","int","int","int","int","int","int","int","int","int","int","int","int","int","int"],"gradient_booster":{"model":{"gbtree_model_param":{"num_parallel_tree":"1","num_trees":"200"},"iteration_indptr":[0,1,2,3,4,5,6,7,8,9,10,11,12,13,14,15,16,17,18,19,20,21,22,23,24,25,26,27,28,29,30,31,32,33,34,35,36,37,38,39,40,41,42,43,44,45,46,47,48,49,50,51,52,53,54,55,56,57,58,59,60,61,62,63,64,65,66,67,68,69,70,71,72,73,74,75,76,77,78,79,80,81,82,83,84,85,86,87,88,89,90,91,92,93,94,95,96,97,98,99,100,101,102,103,104,105,106,107,108,109,110,111,112,113,114,115,116,117,118,119,120,121,122,123,124,125,126,127,128,129,130,131,132,133,134,135,136,137,138,139,140,141,142,143,144,145,146,147,148,149,150,151,152,153,154,155,156,157,158,159,160,161,162,163,164,165,166,167,168,169,170,171,172,173,174,175,176,177,178,179,180,181,182,183,184,185,186,187,188,189,190,191,192,193,194,195,196,197,198,199,200],"tree_info":[0,0,0,0,0,0,0,0,0,0,0,0,0,0,0,0,0,0,0,0,0,0,0,0,0,0,0,0,0,0,0,0,0,0,0,0,0,0,0,0,0,0,0,0,0,0,0,0,0,0,0,0,0,0,0,0,0,0,0,0,0,0,0,0,0,0,0,0,0,0,0,0,0,0,0,0,0,0,0,0,0,0,0,0,0,0,0,0,0,0,0,0,0,0,0,0,0,0,0,0,0,0,0,0,0,0,0,0,0,0,0,0,0,0,0,0,0,0,0,0,0,0,0,0,0,0,0,0,0,0,0,0,0,0,0,0,0,0,0,0,0,0,0,0,0,0,0,0,0,0,0,0,0,0,0,0,0,0,0,0,0,0,0,0,0,0,0,0,0,0,0,0,0,0,0,0,0,0,0,0,0,0,0,0,0,0,0,0,0,0,0,0,0,0,0,0,0,0,0,0],"trees":[{"base_weights":[-1.2737577E-6,-2.1803053E1,1.7015643E2,-3.766661E1,1.9493013E1,1.3575803E2,3.300062E2,-4.848996E1,-2.117106E1,4.835258E0,3.6350983E1,1.1084349E2,1.8430069E2,3.1459442E2,2.1023628E2,-6.258314E1,-4.4210987E1,-2.3007402E1,3.2702312E1,3.2693305E0,1.1187525E2,2.8928507E1,5.8092762E1,1.04334175E2,5.3038807E1,1.780535E2,7.421805E1,2.9978943E2,2.0023628E2,-7.3322205E1,-5.866512E1,-4.7930347E1,-3.980443E1,-2.33977E1,1.1890761E1,2.3190811E1,1.1451591E1,2.4274602E0,1.8576475E1,1.1354417E1,2.5088486E1,2.7137049E1,3.0090763E1,5.6031265E1,4.023628E1,9.846193E1,4.2644756E1,1.72963E2,7.150442E1,2.7694662E2,1.3296046E2,-7.377508E1,-1.2637223E0,-5.8940514E1,4.736278E0,-4.8051224E1,6.436278E0,-4.0014656E1,1.1772083E1,-2.3835857E1,2.9999212E1,2.5547146E1,-6.1637225E0,9.7662437E-1,3.9751606E1,2.2110985E1,3.6755814E1,5.6924217E1,-2.3516297E0,9.493164E1,4.9862194E1,1.7451587E2,5.0483704E0,2.4842833E2,3.675977E2,-1.4824396E1,-2.7637222E0,-1.1868163E1,-3.3299553E0,-9.658313E0,-6.0620373E-1,-8.029575E0,6.536278E0,-1.2637223E0,3.9817035E0,-5.3792577E0,-3.065102E0,2.6271296E0,8.033619E0,5.676304E0,-3.0182962E0,8.5684136E-2,1.9854416E1,9.1356535E0,-1.4455833E0,4.323276E0,1.8236279E1,1.2681659E1,6.8188376E0,1.1540822E1,-8.84963E-1,1.8580591E1,4.710442E1,3.6079784E1,2.3405579E1,5.240855E1,3.1938803E1,1.5381703E1,7.810562E1],"categories":[],"categories_nodes":[],"categories_segments":[],"categories_sizes":[],"default_left":[0,0,0,0,0,0,0,0,0,0,0,0,0,0,0,0,0,0,0,0,0,0,0,0,0,0,0,0,0,0,0,0,0,0,0,0,0,0,0,0,0,0,0,0,0,0,0,0,0,0,0,0,0,0,0,0,0,0,0,0,0,0,0,0,0,0,0,0,0,0,0,0,0,0,0,0,0,0,0,0,0,0,0,0,0,0,0,0,0,0,0,0,0,0,0,0,0,0,0,0,0,0,0,0,0,0,0,0,0],"id":0,"left_children":[1,3,5,7,9,11,13,15,17,19,21,23,25,27,-1,29,31,33,35,37,39,41,43,45,-1,47,-1,49,-1,51,53,55,57,59,-1,61,-1,63,-1,-1,-1,65,-1,67,-1,69,-1,71,-1,73,-1,75,-1,77,-1,79,-1,81,83,85,87,89,-1,91,93,95,97,99,-1,101,-1,103,-1,105,107,-1,-1,-1,-1,-1,-1,-1,-1,-1,-1,-1,-1,-1,-1,-1,-1,-1,-1,-1,-1,-1,-1,-1,-1,-1,-1,-1,-1,-1,-1,-1,-1,-1,-1],"loss_changes":[2.1525012E7,3.3699262E6,3.57876E6,6.624175E5,3.52683E5,6.37495E5,9.586E5,1.324955E5,1.4657519E5,1.2786114E5,1.05474375E5,3.360385E5,1.47471E5,8.6882E5,0E0,1.7578E4,2.634775E4,4.7285938E4,1.0116629E4,5.6733656E4,1.1019062E3,1.0411769E5,3.8283688E4,2.0216525E5,0E0,1.01693E5,0E0,7.66408E5,0E0,3.6303125E3,1.01495E4,1.0552E4,9.091125E3,3.3937875E4,0E0,5.4961074E3,0E0,4.0520434E4,0E0,0E0,0E0,2.2924469E4,0E0,1.077825E4,0E0,1.5366875E5,0E0,3.5968E4,0E0,1.90467E5,0E0,1.762875E3,0E0,5.529625E3,0E0,9.90525E3,0E0,8.98225E3,7.1456934E2,3.6285625E4,1.530169E3,4.5749805E3,0E0,3.8863113E4,8.12625E3,9.1318125E3,9.6849375E3,8.1499375E3,0E0,7.138375E4,0E0,3.7736E4,0E0,6.2047E4,1.2994025E5,0E0,0E0,0E0,0E0,0E0,0E0,0E0,0E0,0E0,0E0,0E0,0E0,0E0,0E0,0E0,0E0,0E0,0E0,0E0,0E0,0E0,0E0,0E0,0E0,0E0,0E0,0E0,0E0,0E0,0E0,0E0,0E0,0E0,0E0],"parents":[2147483647,0,0,1,1,2,2,3,3,4,4,5,5,6,6,7,7,8,8,9,9,10,10,11,11,12,12,13,13,15,15,16,16,17,17,18,18,19,19,20,20,21,21,22,22,23,23,25,25,27,27,29,29,30,30,31,31,32,32,33,33,35,35,37,37,41,41,43,43,45,45,47,47,49,49,51,51,53,53,55,55,57,57,58,58,59,59,60,60,61,61,63,63,64,64,65,65,66,66,67,67,69,69,71,71,73,73,74,74],"right_children":[2,4,6,8,10,12,14,16,18,20,22,24,26,28,-1,30,32,34,36,38,40,42,44,46,-1,48,-1,50,-1,52,54,56,58,60,-1,62,-1,64,-1,-1,-1,66,-1,68,-1,70,-1,72,-1,74,-1,76,-1,78,-1,80,-1,82,84,86,88,90,-1,92,94,96,98,100,-1,102,-1,104,-1,106,108,-1,-1,-1,-1,-1,-1,-1,-1,-1,-1,-1,-1,-1,-1,-1,-1,-1,-1,-1,-1,-1,-1,-1,-1,-1,-1,-1,-1,-1,-1,-1,-1,-1,-1],"split_conditions":[2.15E3,1.438E3,3.758E3,1.197E3,1.71E3,2.85E3,1E0,8.7E2,4E0,1E0,1.95E3,1E0,1E0,3E4,2.1023628E2,5.95E2,1.092E3,1E0,1.232E3,1E0,1.447E3,1E0,1E0,1E0,5.3038807E1,1E0,7.421805E1,1E0,2.0023628E2,1E0,1E0,1E0,1E0,1E0,1.1890761E1,1E0,1.1451591E1,4E0,1.8576475E1,1.1354417E1,2.5088486E1,1.85E3,3.0090763E1,1E0,4.023628E1,1E0,4.2644756E1,1E0,7.150442E1,5.4E3,1.3296046E2,1E0,-1.2637223E0,1E0,4.736278E0,3E0,6.436278E0,1E0,3E0,1.335E3,1.291E3,1E0,-6.1637225E0,1E0,1.68E3,1E0,3E0,1E0,-2.3516297E0,1E0,4.9862194E1,6E0,5.0483704E0,6E0,2E0,-1.4824396E1,-2.7637222E0,-1.1868163E1,-3.3299553E0,-9.658313E0,-6.0620373E-1,-8.029575E0,6.536278E0,-1.2637223E0,3.9817035E0,-5.3792577E0,-3.065102E0,2.6271296E0,8.033619E0,5.676304E0,-3.0182962E0,8.5684136E-2,1.9854416E1,9.1356535E0,-1.4455833E0,4.323276E0,1.8236279E1,1.2681659E1,6.8188376E0,1.1540822E1,-8.84963E-1,1.8580591E1,4.710442E1,3.6079784E1,2.3405579E1,5.240855E1,3.1938803E1,1.5381703E1,7.810562E1],"split_indices":[0,0,0,0,0,0,168,0,2,198,0,198,198,0,0,0,0,198,0,116,0,198,93,168,0,69,0,69,0,60,93,60,195,152,0,21,0,2,0,0,0,0,0,123,0,116,0,63,0,0,0,116,0,168,0,1,0,198,1,0,0,112,0,47,0,47,1,235,0,33,0,2,0,2,1,0,0,0,0,0,0,0,0,0,0,0,0,0,0,0,0,0,0,0,0,0,0,0,0,0,0,0,0,0,0,0,0,0,0],"split_type":[0,0,0,0,0,0,0,0,0,0,0,0,0,0,0,0,0,0,0,0,0,0,0,0,0,0,0,0,0,0,0,0,0,0,0,0,0,0,0,0,0,0,0,0,0,0,0,0,0,0,0,0,0,0,0,0,0,0,0,0,0,0,0,0,0,0,0,0,0,0,0,0,0,0,0,0,0,0,0,0,0,0,0,0,0,0,0,0,0,0,0,0,0,0,0,0,0,0,0,0,0,0,0,0,0,0,0,0,0],"sum_hessian":[5.8E3,5.142E3,6.58E2,3.715E3,1.427E3,5.43E2,1.15E2,2.242E3,1.473E3,7.64E2,6.63E2,3.61E2,1.82E2,1.14E2,1E0,5.19E2,1.723E3,1.425E3,4.8E1,7.54E2,1E1,4.96E2,1.67E2,3.48E2,1.3E1,1.78E2,4E0,1.13E2,1E0,1.34E2,3.85E2,9.29E2,7.94E2,1.419E3,6E0,3.6E1,1.2E1,7.48E2,6E0,3E0,7E0,4.9E2,6E0,1.66E2,1E0,3.32E2,1.6E1,1.75E2,3E0,1.08E2,5E0,1.33E2,1E0,3.84E2,1E0,9.28E2,1E0,7.91E2,3E0,1.408E3,1.1E1,3.5E1,1E0,7.21E2,2.7E1,3.24E2,1.66E2,1.64E2,2E0,3.26E2,6E0,1.73E2,2E0,8.5E1,2.3E1,1.32E2,1E0,3.8E2,4E0,9.23E2,5E0,7.9E2,1E0,1E0,2E0,1.034E3,3.74E2,5E0,6E0,3.3E1,2E0,7.18E2,3E0,2.4E1,3E0,3.23E2,1E0,1.3E1,1.53E2,1.62E2,2E0,3.23E2,3E0,1.55E2,1.8E1,7.2E1,1.3E1,2E0,2.1E1],"tree_param":{"num_deleted":"0","num_feature":"244","num_nodes":"109","size_leaf_vector":"1"}},{"base_weights":[2.3034269E-1,-1.5715098E1,1.5341693E2,-2.9627863E1,2.0744867E1,1.21697266E2,2.7022278E2,-3.9802906E1,-1.7586351E1,1.3073465E1,5.280847E1,1.1564199E2,5.0908783E1,2.5611926E2,1.8921265E2,-5.2030357E1,-3.6762638E1,-1.884462E1,2.6324013E1,1.1753985E1,2.4293602E1,5.0161674E1,2.7305851E1,9.4338104E1,1.4320277E2,2.425578E2,1.8021265E2,-5.2554432E1,-8.158288E0,-4.0687027E1,-3.386905E1,-1.9263979E1,1.0757144E1,1.8457903E1,4.668725E1,8.5970134E-1,1.963609E1,4.9014748E1,3.621265E1,8.9288635E1,3.631497E1,1.3873706E2,6.0778755E1,2.231888E2,1.1080039E2,-5.879741E1,-4.9225967E1,-3.6630495E0,4.2626505E0,-4.003637E1,-1.1452879E1,-3.3297863E1,-1.0203685E1,-2.3837763E1,-1.4162997E1,2.0511553E1,-5.5473504E0,9.683718E0,2.5911186E0,-5.8348054E-1,3.1455439E1,1.9008873E1,2.395716E1,4.7458366E1,2.4526741E1,8.515104E1,4.131439E1,1.4593678E2,9.5469315E1,1.9972343E2,2.9797342E2,-1.1830264E1,-1.1373497E0,-9.941024E0,-2.7971625E0,-8.041485E0,-2.6655504E-1,-6.679406E0,5.88265E0,-5.080766E0,-1.2535446E0,-2.8978977E0,1.5480945E1,4.574434E0,-2.615857E0,4.7659464E-3,-6.298295E0,4.555654E0,1.57636175E1,3.0975668E0,5.904284E0,9.819661E0,3.7121427E0,1.6480997E1,4.256733E1,3.0446339E1,1.8970839E1,1.2680938E1,2.1464146E1,4.046069E1,-1.9576019E0,1.8710966E1,6.454422E1],"categories":[],"categories_nodes":[],"categories_segments":[],"categories_sizes":[],"default_left":[0,0,0,0,0,0,0,0,0,0,0,0,0,0,0,0,0,0,0,0,0,0,0,0,0,0,0,0,0,0,0,0,0,0,0,0,0,0,0,0,0,0,0,0,0,0,0,0,0,0,0,0,0,0,0,0,0,0,0,0,0,0,0,0,0,0,0,0,0,0,0,0,0,0,0,0,0,0,0,0,0,0,0,0,0,0,0,0,0,0,0,0,0,0,0,0,0,0,0,0,0,0,0],"id":1,"left_children":[1,3,5,7,9,11,13,15,17,19,21,23,-1,25,-1,27,29,31,33,35,-1,37,-1,39,41,43,-1,45,47,49,51,53,-1,55,57,59,61,63,-1,65,-1,67,-1,69,-1,71,73,-1,-1,75,-1,77,-1,79,81,83,-1,-1,-1,85,87,89,-1,91,-1,93,-1,95,97,99,101,-1,-1,-1,-1,-1,-1,-1,-1,-1,-1,-1,-1,-1,-1,-1,-1,-1,-1,-1,-1,-1,-1,-1,-1,-1,-1,-1,-1,-1,-1,-1,-1],"loss_changes":[1.4172094E7,2.6662602E6,1.993774E6,4.65377E5,3.5646206E5,3.180745E5,8.63375E5,7.47045E4,9.685375E4,1.6634E5,5.5197125E4,2.30159E5,0E0,7.872745E5,0E0,8.952125E3,1.7404E4,5.269325E4,6.987043E3,9.959217E4,0E0,3.2112E4,0E0,8.81855E4,8.62895E4,5.640425E5,0E0,5.47975E3,2.1864045E3,5.225375E3,7.68525E3,3.9021438E4,0E0,4.0790283E3,1.3191992E2,2.15661E4,3.9997875E4,2.53455E4,0E0,9.20815E4,0E0,4.089425E4,0E0,1.317665E5,0E0,2.201125E3,3.847E3,0E0,0E0,4.408625E3,0E0,6.7656875E3,0E0,2.4274875E4,2.5038422E4,3.1537744E3,0E0,0E0,0E0,8.7666875E3,7.24608E3,2.4342906E4,0E0,1.17893125E4,0E0,5.960025E4,0E0,3.34725E4,3.8356719E3,4.846625E4,9.1221E4,0E0,0E0,0E0,0E0,0E0,0E0,0E0,0E0,0E0,0E0,0E0,0E0,0E0,0E0,0E0,0E0,0E0,0E0,0E0,0E0,0E0,0E0,0E0,0E0,0E0,0E0,0E0,0E0,0E0,0E0,0E0,0E0],"parents":[2147483647,0,0,1,1,2,2,3,3,4,4,5,5,6,6,7,7,8,8,9,9,10,10,11,11,13,13,15,15,16,16,17,17,18,18,19,19,21,21,23,23,24,24,25,25,27,27,28,28,29,29,30,30,31,31,33,33,34,34,35,35,36,36,37,37,39,39,41,41,43,43,45,45,46,46,49,49,51,51,53,53,54,54,55,55,59,59,60,60,61,61,63,63,65,65,67,67,68,68,69,69,70,70],"right_children":[2,4,6,8,10,12,14,16,18,20,22,24,-1,26,-1,28,30,32,34,36,-1,38,-1,40,42,44,-1,46,48,50,52,54,-1,56,58,60,62,64,-1,66,-1,68,-1,70,-1,72,74,-1,-1,76,-1,78,-1,80,82,84,-1,-1,-1,86,88,90,-1,92,-1,94,-1,96,98,100,102,-1,-1,-1,-1,-1,-1,-1,-1,-1,-1,-1,-1,-1,-1,-1,-1,-1,-1,-1,-1,-1,-1,-1,-1,-1,-1,-1,-1,-1,-1,-1,-1],"split_conditions":[2.36E3,1.466E3,3.758E3,1.172E3,1.95E3,1E0,1E0,7.82E2,4E0,1E0,1E0,2.85E3,5.0908783E1,3E4,1.8921265E2,3E0,1.035E3,1E0,1.232E3,1.65E3,2.4293602E1,1E0,2.7305851E1,1E0,1E0,1E0,1.8021265E2,5.95E2,1E0,1E0,1E0,1.27E3,1.0757144E1,1E0,1E0,4E0,1E0,1E0,3.621265E1,1E0,3.631497E1,1E0,6.0778755E1,5.4E3,1.1080039E2,1E0,1E0,-3.6630495E0,4.2626505E0,3E0,-1.1452879E1,1E0,-1.0203685E1,3E0,1E0,1E0,-5.5473504E0,9.683718E0,2.5911186E0,1E0,1E0,1.85E3,2.395716E1,1E0,2.4526741E1,1E0,4.131439E1,6E0,3.1E3,1E0,4E0,-1.1830264E1,-1.1373497E0,-9.941024E0,-2.7971625E0,-8.041485E0,-2.6655504E-1,-6.679406E0,5.88265E0,-5.080766E0,-1.2535446E0,-2.8978977E0,1.5480945E1,4.574434E0,-2.615857E0,4.7659464E-3,-6.298295E0,4.555654E0,1.57636175E1,3.0975668E0,5.904284E0,9.819661E0,3.7121427E0,1.6480997E1,4.256733E1,3.0446339E1,1.8970839E1,1.2680938E1,2.1464146E1,4.046069E1,-1.9576019E0,1.8710966E1,6.454422E1],"split_indices":[0,0,0,0,0,198,168,0,2,198,168,0,0,0,0,1,0,198,0,0,0,93,0,168,69,69,0,0,93,61,82,0,0,21,56,2,47,152,0,116,0,238,0,0,0,60,168,0,0,1,0,198,0,1,116,112,0,0,0,45,6,0,0,238,0,87,0,2,0,64,1,0,0,0,0,0,0,0,0,0,0,0,0,0,0,0,0,0,0,0,0,0,0,0,0,0,0,0,0,0,0,0,0],"split_type":[0,0,0,0,0,0,0,0,0,0,0,0,0,0,0,0,0,0,0,0,0,0,0,0,0,0,0,0,0,0,0,0,0,0,0,0,0,0,0,0,0,0,0,0,0,0,0,0,0,0,0,0,0,0,0,0,0,0,0,0,0,0,0,0,0,0,0,0,0,0,0,0,0,0,0,0,0,0,0,0,0,0,0,0,0,0,0,0,0,0,0,0,0,0,0,0,0,0,0,0,0,0,0],"sum_hessian":[5.8E3,5.254E3,5.46E2,3.803E3,1.451E3,4.31E2,1.15E2,2.06E3,1.743E3,1.172E3,2.79E2,4.14E2,1.7E1,1.14E2,1E0,4.07E2,1.653E3,1.695E3,4.8E1,1.159E3,1.3E1,2.72E2,7E0,2.36E2,1.78E2,1.13E2,1E0,4.02E2,5E0,6.96E2,9.57E2,1.686E3,9E0,3.6E1,1.2E1,4.87E2,6.72E2,2.71E2,1E0,2.25E2,1.1E1,1.75E2,3E0,1.08E2,5E0,1.34E2,2.68E2,4E0,1E0,6.73E2,2.3E1,9.29E2,2.8E1,8.87E2,7.99E2,3.5E1,1E0,1.1E1,1E0,4.66E2,2.1E1,6.69E2,3E0,2.67E2,4E0,2.19E2,6E0,1.48E2,2.7E1,8.5E1,2.3E1,1.33E2,1E0,2.64E2,4E0,6.7E2,3E0,9.28E2,1E0,8.14E2,7.3E1,7.97E2,2E0,3.3E1,2E0,4.58E2,8E0,1.9E1,2E0,5.03E2,1.66E2,2.52E2,1.5E1,2.16E2,3E0,1.3E2,1.8E1,9E0,1.8E1,8.4E1,1E0,3E0,2E1],"tree_param":{"num_deleted":"0","num_feature":"244","num_nodes":"103","size_leaf_vector":"1"}},{"base_weights":[3.698612E-1,-1.2544928E1,1.2444088E2,-2.2399813E1,2.0739088E1,1.0824828E2,2.905212E2,-3.1104197E1,-1.1618604E1,1.4649437E1,4.4810684E1,1.0337641E2,7.250995E1,2.604703E2,1.7029138E2,-3.9889217E1,-2.8143415E1,-1.2808447E1,2.2765232E1,1.3388304E1,1.9781935E1,4.2311035E1,2.2527327E1,8.263981E1,1.3886075E2,2.308737E2,1.6219139E2,-4.7133987E1,-3.7516415E1,-2.9650661E1,-2.341385E1,-1.6511934E1,-6.3579154E0,1.7287941E1,1.6130661E1,8.870694E0,2.1926676E1,4.1099056E1,3.2591385E1,7.834954E1,3.373425E1,1.3417863E2,6.2265827E1,2.605654E2,7.98561E1,-4.7564835E1,-2.4643424E0,-3.7693703E1,3.8363855E0,-2.9962605E1,4.976932E-1,-2.3685173E1,4.276234E0,-1.696901E1,3.0821318E1,-6.884206E0,1.2392615E1,1.8488194E1,-4.9926157E0,8.36417E0,1.3920326E1,2.1220097E1,1.4735585E1,3.9733387E1,2.1938318E1,7.590437E1,4.148675E1,1.2944897E2,5.4197754E1,7.317891E1,2.8673975E2,5.1123993E1,3.0971296E1,-9.569526E0,-1.0236145E0,-7.37251E0,-1.0561231E1,-6.007568E0,6.4605904E0,-9.692208E-1,4.3413973E0,-4.7955375E0,2.3852632E0,-3.446347E0,8.83438E0,2.9633067E0,8.337844E0,-1.46145E0,9.609986E0,3.360405E0,1.1122747E1,1.5746378E0,1.3377141E1,4.3409643E0,-4.596823E0,8.875674E0,5.0879803E0,1.4518077E1,2.9657227E1,2.765224E1,1.7259895E1,1.7183197E1,9.4935304E-1,5.9016872E1,1.9712937E0,1.4265116E1,-9.028707E0],"categories":[],"categories_nodes":[],"categories_segments":[],"categories_sizes":[],"default_left":[0,0,0,0,0,0,0,0,0,0,0,0,0,0,0,0,0,0,0,0,0,0,0,0,0,0,0,0,0,0,0,0,0,0,0,0,0,0,0,0,0,0,0,0,0,0,0,0,0,0,0,0,0,0,0,0,0,0,0,0,0,0,0,0,0,0,0,0,0,0,0,0,0,0,0,0,0,0,0,0,0,0,0,0,0,0,0,0,0,0,0,0,0,0,0,0,0,0,0,0,0,0,0,0,0,0,0],"id":2,"left_children":[1,3,5,7,9,11,13,15,17,19,21,23,-1,25,-1,27,29,31,33,35,-1,37,-1,39,41,43,-1,45,47,49,51,53,55,57,-1,59,61,63,-1,65,-1,67,-1,69,71,73,-1,75,-1,77,79,81,-1,83,85,87,-1,89,-1,91,-1,93,-1,95,-1,97,-1,99,-1,101,103,105,-1,-1,-1,-1,-1,-1,-1,-1,-1,-1,-1,-1,-1,-1,-1,-1,-1,-1,-1,-1,-1,-1,-1,-1,-1,-1,-1,-1,-1,-1,-1,-1,-1,-1,-1],"loss_changes":[9.296799E6,1.7241578E6,1.439582E6,3.8017525E5,1.7539528E5,5.819835E5,5.8733925E5,5.7219E4,7.446391E4,1.0068856E5,3.626322E4,3.505505E5,0E0,5.7852E5,0E0,7.909875E3,1.1288875E4,4.177325E4,1.7946926E4,3.633414E4,0E0,2.7664375E4,0E0,1.0231225E5,1.0357925E5,1.8545525E5,0E0,1.43875E3,5.035375E3,1.196825E4,5.5016875E3,2.4602594E4,2.34748E4,3.3520977E3,0E0,1.852084E4,1.039375E4,1.7561375E4,0E0,7.894475E4,0E0,7.945125E4,0E0,1.65396E5,1.1477387E4,1.3515938E3,0E0,3.4295E3,0E0,6.86325E3,1.6919286E3,4.5464844E3,0E0,1.8478969E4,1.2956318E3,1.5154689E4,0E0,2.5711719E3,0E0,1.7201664E4,0E0,7.441172E3,0E0,1.4207844E4,0E0,6.0237875E4,0E0,5.385025E4,0E0,4.8219277E3,7.333725E4,1.877794E4,0E0,0E0,0E0,0E0,0E0,0E0,0E0,0E0,0E0,0E0,0E0,0E0,0E0,0E0,0E0,0E0,0E0,0E0,0E0,0E0,0E0,0E0,0E0,0E0,0E0,0E0,0E0,0E0,0E0,0E0,0E0,0E0,0E0,0E0,0E0],"parents":[2147483647,0,0,1,1,2,2,3,3,4,4,5,5,6,6,7,7,8,8,9,9,10,10,11,11,13,13,15,15,16,16,17,17,18,18,19,19,21,21,23,23,24,24,25,25,27,27,28,28,29,29,30,30,31,31,32,32,33,33,35,35,36,36,37,37,39,39,41,41,43,43,44,44,45,45,47,47,49,49,50,50,51,51,53,53,54,54,55,55,57,57,59,59,61,61,63,63,65,65,67,67,69,69,70,70,71,71],"right_children":[2,4,6,8,10,12,14,16,18,20,22,24,-1,26,-1,28,30,32,34,36,-1,38,-1,40,42,44,-1,46,48,50,52,54,56,58,-1,60,62,64,-1,66,-1,68,-1,70,72,74,-1,76,-1,78,80,82,-1,84,86,88,-1,90,-1,92,-1,94,-1,96,-1,98,-1,100,-1,102,104,106,-1,-1,-1,-1,-1,-1,-1,-1,-1,-1,-1,-1,-1,-1,-1,-1,-1,-1,-1,-1,-1,-1,-1,-1,-1,-1,-1,-1,-1,-1,-1,-1,-1,-1,-1],"split_conditions":[2.36E3,1.555E3,4.75E3,1.197E3,2E3,1E0,1E0,9E2,4E0,1E0,1E0,3.1E3,7.250995E1,3E4,1.7029138E2,5.95E2,1.145E3,1.35E3,1E0,1.8E3,1.9781935E1,1E0,2.2527327E1,1E0,1E0,7E0,1.6219139E2,1E0,1E0,3E0,1E0,1E0,1E0,1E0,1.6130661E1,1E0,1E0,1E0,3.2591385E1,1E0,3.373425E1,1E0,6.2265827E1,4E0,1.6E1,1E0,-2.4643424E0,1E0,3.8363855E0,1E0,1E0,1E0,4.276234E0,1E0,1.291E3,1E0,1.2392615E1,1E0,-4.9926157E0,1E0,1.3920326E1,1E0,1.4735585E1,4E0,2.1938318E1,1E0,4.148675E1,5E0,5.4197754E1,1E0,1E0,1.2E1,3.0971296E1,-9.569526E0,-1.0236145E0,-7.37251E0,-1.0561231E1,-6.007568E0,6.4605904E0,-9.692208E-1,4.3413973E0,-4.7955375E0,2.3852632E0,-3.446347E0,8.83438E0,2.9633067E0,8.337844E0,-1.46145E0,9.609986E0,3.360405E0,1.1122747E1,1.5746378E0,1.3377141E1,4.3409643E0,-4.596823E0,8.875674E0,5.0879803E0,1.4518077E1,2.9657227E1,2.765224E1,1.7259895E1,1.7183197E1,9.4935304E-1,5.9016872E1,1.9712937E0,1.4265116E1,-9.028707E0],"split_indices":[0,0,0,0,0,69,168,0,2,198,168,0,0,0,0,0,0,0,6,0,0,93,0,198,116,1,0,168,93,1,116,152,116,21,0,116,152,152,0,33,0,198,0,1,1,60,0,61,0,60,195,210,0,198,0,168,0,198,0,152,0,22,0,2,0,168,0,2,0,36,82,1,0,0,0,0,0,0,0,0,0,0,0,0,0,0,0,0,0,0,0,0,0,0,0,0,0,0,0,0,0,0,0,0,0,0,0],"split_type":[0,0,0,0,0,0,0,0,0,0,0,0,0,0,0,0,0,0,0,0,0,0,0,0,0,0,0,0,0,0,0,0,0,0,0,0,0,0,0,0,0,0,0,0,0,0,0,0,0,0,0,0,0,0,0,0,0,0,0,0,0,0,0,0,0,0,0,0,0,0,0,0,0,0,0,0,0,0,0,0,0,0,0,0,0,0,0,0,0,0,0,0,0,0,0,0,0,0,0,0,0,0,0,0,0,0,0],"sum_hessian":[5.8E3,5.254E3,5.46E2,4.054E3,1.2E3,4.99E2,4.7E1,2.242E3,1.812E3,9.59E2,2.41E2,4.91E2,8E0,4.6E1,1E0,5.62E2,1.68E3,1.752E3,6E1,9.46E2,1.3E1,2.34E2,7E0,3.12E2,1.79E2,4.5E1,1E0,1.34E2,4.28E2,1.27E3,4.1E2,1.112E3,6.4E2,5.6E1,4E0,6.2E2,3.26E2,2.33E2,1E0,2.99E2,1.3E1,1.76E2,3E0,3.7E1,8E0,1.32E2,2E0,4.27E2,1E0,1.257E3,1.3E1,4.08E2,2E0,1.102E3,1E1,6.36E2,4E0,5.5E1,1E0,6.16E2,4E0,3.23E2,3E0,2.3E2,3E0,2.95E2,4E0,1.72E2,4E0,5E0,3.2E1,7E0,1E0,1.31E2,1E0,4.08E2,1.9E1,1.256E3,1E0,1.1E1,2E0,4.05E2,3E0,1.098E3,4E0,5E0,5E0,6.32E2,4E0,5.4E1,1E0,6.12E2,4E0,3.2E2,3E0,1.72E2,5.8E1,2.84E2,1.1E1,1.41E2,3.1E1,4E0,1E0,3.1E1,1E0,6E0,1E0],"tree_param":{"num_deleted":"0","num_feature":"244","num_nodes":"107","size_leaf_vector":"1"}},{"base_weights":[4.6769375E-1,-9.998731E0,1.0101722E2,-1.7629808E1,1.7810955E1,9.089842E1,3.002863E2,-2.4892925E1,-8.964133E0,1.2291319E1,3.4562523E1,8.5607254E1,7.064907E1,2.5099283E2,1.5326225E2,-3.024382E1,-2.1612326E1,-9.987597E0,1.979926E1,1.1139196E1,1.6108145E1,3.2725655E1,1.8585043E1,7.0735725E1,1.2843312E2,2.006291E2,1.4597224E2,-3.5075626E1,-2.7530798E1,-2.1098642E1,-7.308519E0,-1.31945505E1,-4.917729E0,1.5544393E1,1.3549756E1,1.0701486E1,1.9989079E1,3.176758E1,2.9332245E1,6.7651955E1,1.9136667E2,1.4207065E2,7.319259E1,2.2176988E2,3.9482773E1,-3.555425E1,4.653946E-1,-2.7635132E1,2.9644945E0,-2.1248835E1,4.710564E0,-1.357032E1,2.568443E1,-5.3164697E0,1.0409797E1,8.788667E0,2.4300613E1,1.0213331E1,1.3424723E1,3.0620413E1,1.738044E1,6.419278E1,2.927854E1,1.7800217E1,4.554319E1,1.4569131E2,3.026194E0,2.3560802E1,8.861458E1,1.332684E1,2.4392392E2,-8.054037E0,2.7874165E1,-7.214986E0,-1.7510515E0,-1.6100247E0,3.4527466E0,-5.554283E0,1.2760193E0,-4.2828245E0,3.8468502E0,-2.7590792E0,7.723064E0,2.4694216E0,6.9482026E0,-1.1075461E0,1.4978724E1,2.0647175E0,-4.4933543E0,5.2920394E0,-2.9688935E0,1.1868286E0,2.8895006E0,5.9354234E0,1.7091751E1,1.2494327E1,3.484887E1,3.066254E1,1.646143E1,-5.963487E0,1.2310246E1,1.9584204E1,2.7119955E-2,5.144575E1,1.7741638E0],"categories":[],"categories_nodes":[],"categories_segments":[],"categories_sizes":[],"default_left":[0,0,0,0,0,0,0,0,0,0,0,0,0,0,0,0,0,0,0,0,0,0,0,0,0,0,0,0,0,0,0,0,0,0,0,0,0,0,0,0,0,0,0,0,0,0,0,0,0,0,0,0,0,0,0,0,0,0,0,0,0,0,0,0,0,0,0,0,0,0,0,0,0,0,0,0,0,0,0,0,0,0,0,0,0,0,0,0,0,0,0,0,0,0,0,0,0,0,0,0,0,0,0,0,0],"id":3,"left_children":[1,3,5,7,9,11,13,15,17,19,21,23,-1,25,-1,27,29,31,33,35,-1,37,-1,39,41,43,-1,45,47,49,-1,51,53,55,-1,57,-1,59,-1,61,63,65,67,69,71,73,75,77,-1,79,-1,81,83,85,-1,87,89,91,-1,93,-1,95,-1,-1,-1,97,-1,99,101,-1,103,-1,-1,-1,-1,-1,-1,-1,-1,-1,-1,-1,-1,-1,-1,-1,-1,-1,-1,-1,-1,-1,-1,-1,-1,-1,-1,-1,-1,-1,-1,-1,-1,-1,-1],"loss_changes":[6.105947E6,1.115519E6,1.0756555E6,2.593405E5,1.0424281E5,6.943585E5,4.049325E5,3.872025E4,5.5600562E4,6.6175664E4,2.6976188E4,3.17638E5,0E0,4.5650875E5,0E0,1.0176875E4,9.92025E3,2.9493672E4,1.2208111E4,3.1582445E4,0E0,2.5141375E4,0E0,1.29529E5,8.828925E4,7.300606E4,0E0,5.1537812E3,2.8355938E3,9.5539375E3,0E0,1.6608984E4,1.6313461E4,3.3948633E3,0E0,2.2367695E4,0E0,1.4542625E4,0E0,9.2744625E4,1.322125E4,4.559475E4,1.9343953E4,5.5920812E4,3.7477953E4,3.842375E3,8.5420795E2,2.7175625E3,0E0,9.4185E3,0E0,1.3488219E4,8.997446E2,1.2873369E4,0E0,1.9590237E3,2.59075E3,1.4971008E4,0E0,1.1327156E4,0E0,5.7493625E4,0E0,0E0,0E0,3.617175E4,0E0,1.80582E4,1.7278625E4,0E0,5.40105E4,0E0,0E0,0E0,0E0,0E0,0E0,0E0,0E0,0E0,0E0,0E0,0E0,0E0,0E0,0E0,0E0,0E0,0E0,0E0,0E0,0E0,0E0,0E0,0E0,0E0,0E0,0E0,0E0,0E0,0E0,0E0,0E0,0E0,0E0],"parents":[2147483647,0,0,1,1,2,2,3,3,4,4,5,5,6,6,7,7,8,8,9,9,10,10,11,11,13,13,15,15,16,16,17,17,18,18,19,19,21,21,23,23,24,24,25,25,27,27,28,28,29,29,31,31,32,32,33,33,35,35,37,37,39,39,40,40,41,41,42,42,43,43,44,44,45,45,46,46,47,47,49,49,51,51,52,52,53,53,55,55,56,56,57,57,59,59,61,61,65,65,67,67,68,68,70,70],"right_children":[2,4,6,8,10,12,14,16,18,20,22,24,-1,26,-1,28,30,32,34,36,-1,38,-1,40,42,44,-1,46,48,50,-1,52,54,56,-1,58,-1,60,-1,62,64,66,68,70,72,74,76,78,-1,80,-1,82,84,86,-1,88,90,92,-1,94,-1,96,-1,-1,-1,98,-1,100,102,-1,104,-1,-1,-1,-1,-1,-1,-1,-1,-1,-1,-1,-1,-1,-1,-1,-1,-1,-1,-1,-1,-1,-1,-1,-1,-1,-1,-1,-1,-1,-1,-1,-1,-1,-1],"split_conditions":[2.36E3,1.578E3,5.4E3,1.197E3,1.95E3,1E0,1E0,1E3,4E0,1E0,1E0,3.5E3,7.064907E1,3E4,1.5326225E2,7E2,1E0,1.35E3,1E0,1E0,1.6108145E1,1E0,1.8585043E1,1E0,5E0,8E0,1.4597224E2,3E0,1E0,1E0,-7.308519E0,1E0,1E0,1.232E3,1.3549756E1,1E0,1.9989079E1,1E0,2.9332245E1,1E0,4E0,1E0,3.758E3,4E0,1.6E1,1E0,1E0,1E0,2.9644945E0,1E0,4.710564E0,1E0,1.291E3,1E0,1.0409797E1,1E0,1E0,1.738E3,1.3424723E1,1E0,1.738044E1,1E0,2.927854E1,1.7800217E1,4.554319E1,1E0,3.026194E0,6E0,1E0,1.332684E1,1E0,-8.054037E0,2.7874165E1,-7.214986E0,-1.7510515E0,-1.6100247E0,3.4527466E0,-5.554283E0,1.2760193E0,-4.2828245E0,3.8468502E0,-2.7590792E0,7.723064E0,2.4694216E0,6.9482026E0,-1.1075461E0,1.4978724E1,2.0647175E0,-4.4933543E0,5.2920394E0,-2.9688935E0,1.1868286E0,2.8895006E0,5.9354234E0,1.7091751E1,1.2494327E1,3.484887E1,3.066254E1,1.646143E1,-5.963487E0,1.2310246E1,1.9584204E1,2.7119955E-2,5.144575E1,1.7741638E0],"split_indices":[0,0,0,0,0,69,168,0,2,198,168,0,0,0,0,0,82,0,6,47,0,93,0,116,2,1,0,1,225,41,0,152,116,0,0,152,0,152,0,198,2,169,0,1,1,168,93,168,0,152,0,33,0,87,0,21,4,0,0,78,0,33,0,0,0,238,0,1,123,0,82,0,0,0,0,0,0,0,0,0,0,0,0,0,0,0,0,0,0,0,0,0,0,0,0,0,0,0,0,0,0,0,0,0,0],"split_type":[0,0,0,0,0,0,0,0,0,0,0,0,0,0,0,0,0,0,0,0,0,0,0,0,0,0,0,0,0,0,0,0,0,0,0,0,0,0,0,0,0,0,0,0,0,0,0,0,0,0,0,0,0,0,0,0,0,0,0,0,0,0,0,0,0,0,0,0,0,0,0,0,0,0,0,0,0,0,0,0,0,0,0,0,0,0,0,0,0,0,0,0,0,0,0,0,0,0,0,0,0,0,0,0,0],"sum_hessian":[5.8E3,5.254E3,5.46E2,4.123E3,1.131E3,5.21E2,2.5E1,2.242E3,1.881E3,8.52E2,2.79E2,5.12E2,9E0,2.4E1,1E0,8.49E2,1.393E3,1.817E3,6.4E1,8.39E2,1.3E1,2.72E2,7E0,3.82E2,1.3E2,2.3E1,1E0,3.01E2,5.48E2,1.349E3,4.4E1,1.112E3,7.05E2,6E1,4E0,8.36E2,3E0,2.71E2,1E0,3.74E2,8E0,1.03E2,2.7E1,2E1,3E0,2.97E2,4E0,5.47E2,1E0,1.345E3,4E0,1.102E3,1E1,7.01E2,4E0,3.5E1,2.5E1,8.3E2,6E0,2.67E2,4E0,3.6E2,1.4E1,3E0,5E0,1E2,3E0,7E0,2E1,3E0,1.7E1,2E0,1E0,2.91E2,6E0,3E0,1E0,5.45E2,2E0,1.34E3,5E0,1.098E3,4E0,5E0,5E0,7E2,1E0,3.4E1,1E0,2.4E1,1E0,4.14E2,4.16E2,2.64E2,3E0,3.56E2,4E0,8.8E1,1.2E1,3E0,4E0,1.8E1,2E0,1.6E1,1E0],"tree_param":{"num_deleted":"0","num_feature":"244","num_nodes":"105","size_leaf_vector":"1"}},{"base_weights":[5.215223E-1,-8.912526E0,7.414639E1,-1.5212861E1,8.979552E0,6.6610275E1,2.5505986E2,-2.0723732E1,-9.130319E0,-3.3111382E-1,1.3364412E1,6.2934887E1,2.8966116E2,2.1008784E2,1.3793602E2,-2.7468794E1,-1.922178E1,-9.472376E0,4.767267E1,-6.72769E-1,9.704413E0,1.2535429E1,1.3116633E1,4.5559097E1,8.9880035E1,2.699917E1,6.733224E1,1.6410191E2,1.3137503E2,-2.7786943E1,7.4086E-1,-1.9645544E1,-8.684035E0,-1.0900609E1,-9.842792E-2,2.447968E1,1.0662016E1,-1.14443205E-1,-5.330644E0,1.22551E1,2.6399023E1,4.4076973E1,3.4920094E1,8.711186E1,4.683851E1,1.8491394E2,4.803341E1,-2.811726E1,-7.2543554E0,-6.8426056E0,3.1074722E0,-1.9405453E1,-6.9921966E0,-1.707302E1,-1.0056758E0,-1.3622266E1,-7.5556235E0,-9.203181E-1,9.68354E0,6.485276E0,6.3957214E-2,-8.887824E0,2.0395029E-1,8.309221E0,1.8913258E1,5.6679058E1,2.9374714E1,8.429144E1,4.067547E1,6.768009E0,1.9981993E2,-2.6751022E0,2.5086746E1,-6.025943E0,-4.9184227E0,-1.7602967E0,-4.515381E-1,5.020345E-2,-2.8123474E0,-3.8390908E0,-7.4401927E0,-1.4096612E0,-4.44684E0,-4.129444E-1,3.50019E0,-2.7869053E0,6.629043E0,-1.579662E0,8.372615E0,-7.6946336E-1,2.7036316E0,1.09434836E-1,-7.0913024E0,1.549785E0,1.6990717E1,3.651198E0,1.7025494E1,8.255902E0,1.6373873E1,5.2376056E0,3.2130367E1,1.5323038E1,2.3244207E1,4.2126957E1,1.5967468E0,9.4002075E0,-6.980166E0],"categories":[],"categories_nodes":[],"categories_segments":[],"categories_sizes":[],"default_left":[0,0,0,0,0,0,0,0,0,0,0,0,0,0,0,0,0,0,0,0,0,0,0,0,0,0,0,0,0,0,0,0,0,0,0,0,0,0,0,0,0,0,0,0,0,0,0,0,0,0,0,0,0,0,0,0,0,0,0,0,0,0,0,0,0,0,0,0,0,0,0,0,0,0,0,0,0,0,0,0,0,0,0,0,0,0,0,0,0,0,0,0,0,0,0,0,0,0,0,0,0,0,0,0,0,0,0],"id":4,"left_children":[1,3,5,7,9,11,13,15,17,19,21,23,25,27,-1,29,31,33,35,37,-1,39,-1,41,43,-1,-1,45,-1,47,49,51,53,55,57,59,-1,61,-1,63,-1,65,-1,67,-1,69,71,73,75,77,-1,79,-1,81,83,85,87,89,-1,-1,-1,-1,91,93,95,97,99,101,-1,-1,103,105,-1,-1,-1,-1,-1,-1,-1,-1,-1,-1,-1,-1,-1,-1,-1,-1,-1,-1,-1,-1,-1,-1,-1,-1,-1,-1,-1,-1,-1,-1,-1,-1,-1,-1,-1],"loss_changes":[4.0299228E6,5.798869E5,8.81481E5,1.2732125E5,5.4711227E4,5.0152275E5,3.6329575E5,1.9682875E4,3.5619594E4,7.209749E3,3.861367E4,2.88526E5,2.7244875E4,4.0585388E5,0E0,3.2605312E3,7.1305E3,2.4097672E4,1.3321875E2,6.2053276E3,0E0,2.8454594E4,0E0,6.5363625E4,7.707275E4,0E0,0E0,4.9092875E4,0E0,2.2172812E3,6.673598E2,5.0983125E3,4.1697173E3,1.4117359E4,9.574669E3,7.575962E2,0E0,5.9363926E3,0E0,2.3409078E4,0E0,6.8555875E4,0E0,6.1885125E4,0E0,3.8276188E4,1.9959824E4,1.749125E3,3.424231E1,2.0836893E2,0E0,5.074625E3,0E0,1.4472051E3,7.221127E2,1.3020984E4,1.2236035E4,1.0025698E4,0E0,0E0,0E0,0E0,5.135521E3,2.3604816E4,1.293825E4,7.5368125E4,6.983883E4,4.91845E4,0E0,0E0,3.5662625E4,8.043774E3,0E0,0E0,0E0,0E0,0E0,0E0,0E0,0E0,0E0,0E0,0E0,0E0,0E0,0E0,0E0,0E0,0E0,0E0,0E0,0E0,0E0,0E0,0E0,0E0,0E0,0E0,0E0,0E0,0E0,0E0,0E0,0E0,0E0,0E0,0E0],"parents":[2147483647,0,0,1,1,2,2,3,3,4,4,5,5,6,6,7,7,8,8,9,9,10,10,11,11,12,12,13,13,15,15,16,16,17,17,18,18,19,19,21,21,23,23,24,24,27,27,29,29,30,30,31,31,32,32,33,33,34,34,35,35,37,37,39,39,41,41,43,43,45,45,46,46,47,47,48,48,49,49,51,51,53,53,54,54,55,55,56,56,57,57,62,62,63,63,64,64,65,65,66,66,67,67,70,70,71,71],"right_children":[2,4,6,8,10,12,14,16,18,20,22,24,26,28,-1,30,32,34,36,38,-1,40,-1,42,44,-1,-1,46,-1,48,50,52,54,56,58,60,-1,62,-1,64,-1,66,-1,68,-1,70,72,74,76,78,-1,80,-1,82,84,86,88,90,-1,-1,-1,-1,92,94,96,98,100,102,-1,-1,104,106,-1,-1,-1,-1,-1,-1,-1,-1,-1,-1,-1,-1,-1,-1,-1,-1,-1,-1,-1,-1,-1,-1,-1,-1,-1,-1,-1,-1,-1,-1,-1,-1,-1,-1,-1],"split_conditions":[2.15E3,1.466E3,5.4E3,1.161E3,1.62E3,1E0,1E0,7.5E2,1E0,1E0,1E0,2.99E3,2.99E3,3E4,1.3793602E2,3E0,3E0,3E0,1.27E3,1E0,9.704413E0,1E0,1.3116633E1,1E0,1E0,2.699917E1,6.733224E1,7E0,1.3137503E2,1E0,1E0,1E0,1.078E3,1.265E3,1E0,1.205E3,1.0662016E1,2E0,-5.330644E0,1.85E3,2.6399023E1,4E0,3.4920094E1,1E0,4.683851E1,2E0,1.6E1,6.5E2,2E0,1E0,3.1074722E0,1E0,-6.9921966E0,1.025E3,1E0,1E0,1E0,4E0,9.68354E0,6.485276E0,6.3957214E-2,-8.887824E0,1E0,1E0,1E0,2.444E3,1E0,4.2E3,4.067547E1,6.768009E0,1E0,8E0,2.5086746E1,-6.025943E0,-4.9184227E0,-1.7602967E0,-4.515381E-1,5.020345E-2,-2.8123474E0,-3.8390908E0,-7.4401927E0,-1.4096612E0,-4.44684E0,-4.129444E-1,3.50019E0,-2.7869053E0,6.629043E0,-1.579662E0,8.372615E0,-7.6946336E-1,2.7036316E0,1.09434836E-1,-7.0913024E0,1.549785E0,1.6990717E1,3.651198E0,1.7025494E1,8.255902E0,1.6373873E1,5.2376056E0,3.2130367E1,1.5323038E1,2.3244207E1,4.2126957E1,1.5967468E0,9.4002075E0,-6.980166E0],"split_indices":[0,0,0,0,0,69,168,0,198,6,198,0,0,0,0,1,2,1,0,45,0,93,0,3,116,0,0,1,0,168,93,61,0,0,178,0,0,2,0,0,0,2,0,198,0,1,1,0,2,201,0,20,0,0,195,33,168,1,0,0,0,0,35,47,205,0,87,0,0,0,82,1,0,0,0,0,0,0,0,0,0,0,0,0,0,0,0,0,0,0,0,0,0,0,0,0,0,0,0,0,0,0,0,0,0,0,0],"split_type":[0,0,0,0,0,0,0,0,0,0,0,0,0,0,0,0,0,0,0,0,0,0,0,0,0,0,0,0,0,0,0,0,0,0,0,0,0,0,0,0,0,0,0,0,0,0,0,0,0,0,0,0,0,0,0,0,0,0,0,0,0,0,0,0,0,0,0,0,0,0,0,0,0,0,0,0,0,0,0,0,0,0,0,0,0,0,0,0,0,0,0,0,0,0,0,0,0,0,0,0,0,0,0,0,0,0,0],"sum_hessian":[5.8E3,5.142E3,6.58E2,3.803E3,1.339E3,6.33E2,2.5E1,1.994E3,1.809E3,4.29E2,9.1E2,6.24E2,9E0,2.4E1,1E0,3.6E2,1.634E3,1.799E3,1E1,4.27E2,2E0,8.97E2,1.3E1,3.81E2,2.43E2,3E0,6E0,2.3E1,1E0,3.56E2,4E0,1.57E3,6.4E1,1.561E3,2.38E2,3E0,7E0,4.19E2,8E0,8.96E2,1E0,3.78E2,3E0,2.4E2,3E0,1.9E1,4E0,3.5E2,6E0,3E0,1E0,1.548E3,2.2E1,3E1,3.4E1,8.59E2,7.02E2,2.35E2,3E0,2E0,1E0,2E0,4.17E2,5.64E2,3.32E2,2.02E2,1.76E2,2.36E2,4E0,2E0,1.7E1,3E0,1E0,2.18E2,1.32E2,4E0,2E0,2E0,1E0,1.532E3,1.6E1,1.1E1,1.9E1,3.3E1,1E0,8.54E2,5E0,6.98E2,4E0,1.96E2,3.9E1,4.14E2,3E0,5.61E2,3E0,3.3E2,2E0,1.27E2,7.5E1,1.73E2,3E0,1.93E2,4.3E1,1.6E1,1E0,1E0,2E0],"tree_param":{"num_deleted":"0","num_feature":"244","num_nodes":"107","size_leaf_vector":"1"}},{"base_weights":[5.443479E-1,-6.3640223E0,6.69117E1,-1.1228842E1,1.18124695E1,5.9287632E1,2.1740594E2,-1.6595955E1,-6.2480707E0,8.3959675E0,2.4032005E1,5.562675E1,2.4116206E2,1.7644522E2,1.2414241E2,-2.159354E1,-1.5245525E1,-6.8778105E0,1.4077235E1,7.650056E0,1.0680686E1,2.3145868E1,2.3759119E1,4.5537342E1,8.4700165E1,2.2949293E1,5.5789562E1,1.3453146E2,1.18237526E2,-2.1806383E1,6.1002874E0,-1.4894622E1,-5.128632E0,-6.363641E0,-2.38591E1,1.0742484E1,1.0389152E1,7.338342E0,1.4442108E1,2.1424913E1,1.41181135E1,4.3088345E1,1.425191E2,9.571989E1,4.0744778E1,1.5610378E2,5.9841026E1,-2.1173698E1,-6.673955E0,-2.1459198E-2,1.6410494E0,-1.5074642E1,3.025703E0,-5.996915E0,-3.0587685E1,-9.425218E0,-2.5262337E1,5.1658196E0,1.8050846E1,6.9371223E0,1.0967517E1,2.0534271E1,1.6631893E1,4.0317715E1,2.137914E1,1.2674103E1,3.430633E1,8.2682465E1,1.2375373E2,4.494546E1,-7.26736E0,8.544665E0,1.7593164E2,7.390086E1,-2.4517992E0,-4.108754E0,-6.680172E0,-2.9656842E0,-5.7115736E0,-2.4187787E-1,4.3561797E0,-1.104976E0,-5.0967746E0,-6.2808547E0,-2.5540583E0,-2.2771635E0,2.3383789E-1,-5.3611937E0,-2.8788457E0,1.3896068E0,-3.3509095E0,4.0192995E0,-3.3090408E0,1.3276548E0,1.1187107E1,3.902104E0,1.4802115E1,8.384692E0,-9.375275E0,2.516365E1,1.4285399E1,1.5923197E1,3.574865E1,1.2468652E0,1.1636528E1,3.7494343E1,1.4370728E0,8.704979E0,2.257807E1],"categories":[],"categories_nodes":[],"categories_segments":[],"categories_sizes":[],"default_left":[0,0,0,0,0,0,0,0,0,0,0,0,0,0,0,0,0,0,0,0,0,0,0,0,0,0,0,0,0,0,0,0,0,0,0,0,0,0,0,0,0,0,0,0,0,0,0,0,0,0,0,0,0,0,0,0,0,0,0,0,0,0,0,0,0,0,0,0,0,0,0,0,0,0,0,0,0,0,0,0,0,0,0,0,0,0,0,0,0,0,0,0,0,0,0,0,0,0,0,0,0,0,0,0,0,0,0,0,0],"id":5,"left_children":[1,3,5,7,9,11,13,15,17,19,21,23,25,27,-1,29,31,33,35,37,-1,39,-1,41,43,-1,-1,45,-1,47,49,51,-1,53,55,57,-1,59,-1,61,-1,63,65,67,69,71,73,75,-1,-1,-1,77,79,81,83,85,87,89,91,93,-1,95,-1,97,-1,-1,-1,99,101,103,-1,-1,105,107,-1,-1,-1,-1,-1,-1,-1,-1,-1,-1,-1,-1,-1,-1,-1,-1,-1,-1,-1,-1,-1,-1,-1,-1,-1,-1,-1,-1,-1,-1,-1,-1,-1,-1,-1],"loss_changes":[2.6601272E6,4.6480794E5,6.1472625E5,1.1072869E5,4.6138562E4,3.3414325E5,3.1999088E5,1.31348125E4,2.764168E4,2.8765184E4,1.7571984E4,1.4662312E5,1.57588125E4,3.5505188E5,0E0,2.6205E3,5.3609062E3,1.8079047E4,7.6503115E3,1.6696582E4,0E0,1.8165297E4,0E0,8.4824625E4,5.9553125E4,0E0,0E0,2.9328469E4,0E0,2.3588281E3,5.3147247E1,4.9652812E3,0E0,1.7832477E4,9.9739844E2,2.3928843E3,0E0,1.5875738E4,0E0,1.1158469E4,0E0,6.198525E4,9.796656E3,2.7778625E4,1.06994375E4,3.294928E4,8.001951E3,2.3947031E3,0E0,0E0,0E0,4.5895E3,1.2972213E3,1.8247055E4,3.544336E1,1.5871185E2,5.3685156E2,1.5228154E3,2.1725576E3,1.2031387E4,0E0,1.1257227E4,0E0,5.2509438E4,0E0,0E0,0E0,2.6941188E4,6.1009656E4,1.3472781E4,0E0,0E0,2.7863094E4,2.1925195E3,0E0,0E0,0E0,0E0,0E0,0E0,0E0,0E0,0E0,0E0,0E0,0E0,0E0,0E0,0E0,0E0,0E0,0E0,0E0,0E0,0E0,0E0,0E0,0E0,0E0,0E0,0E0,0E0,0E0,0E0,0E0,0E0,0E0,0E0,0E0],"parents":[2147483647,0,0,1,1,2,2,3,3,4,4,5,5,6,6,7,7,8,8,9,9,10,10,11,11,12,12,13,13,15,15,16,16,17,17,18,18,19,19,21,21,23,23,24,24,27,27,29,29,30,30,31,31,33,33,34,34,35,35,37,37,39,39,41,41,42,42,43,43,44,44,45,45,46,46,47,47,51,51,52,52,53,53,54,54,55,55,56,56,57,57,58,58,59,59,61,61,63,63,67,67,68,68,69,69,72,72,73,73],"right_children":[2,4,6,8,10,12,14,16,18,20,22,24,26,28,-1,30,32,34,36,38,-1,40,-1,42,44,-1,-1,46,-1,48,50,52,-1,54,56,58,-1,60,-1,62,-1,64,66,68,70,72,74,76,-1,-1,-1,78,80,82,84,86,88,90,92,94,-1,96,-1,98,-1,-1,-1,100,102,104,-1,-1,106,108,-1,-1,-1,-1,-1,-1,-1,-1,-1,-1,-1,-1,-1,-1,-1,-1,-1,-1,-1,-1,-1,-1,-1,-1,-1,-1,-1,-1,-1,-1,-1,-1,-1,-1,-1],"split_conditions":[2.36E3,1.59E3,5.4E3,1.161E3,2E3,1E0,1E0,8E2,4E0,1E0,1E0,3.5E3,2.99E3,3E4,1.2414241E2,1E0,1E0,1E0,1E0,1E0,1.0680686E1,1E0,2.3759119E1,1E0,5E0,2.2949293E1,5.5789562E1,6E0,1.18237526E2,1E0,6.5E2,3E0,-5.128632E0,1E0,1.18E3,1.232E3,1.0389152E1,1E0,1.4442108E1,1E0,1.41181135E1,1E0,4E0,5E0,1E0,4E0,1E0,1E0,-6.673955E0,-2.1459198E-2,1.6410494E0,1E0,1E0,1E0,1.569E3,1.172E3,1.494E3,1E0,1E0,1E0,1.0967517E1,1E0,1.6631893E1,1E0,2.137914E1,1.2674103E1,3.430633E1,3.596E3,4.2E3,3.758E3,-7.26736E0,8.544665E0,1E0,1.6E1,-2.4517992E0,-4.108754E0,-6.680172E0,-2.9656842E0,-5.7115736E0,-2.4187787E-1,4.3561797E0,-1.104976E0,-5.0967746E0,-6.2808547E0,-2.5540583E0,-2.2771635E0,2.3383789E-1,-5.3611937E0,-2.8788457E0,1.3896068E0,-3.3509095E0,4.0192995E0,-3.3090408E0,1.3276548E0,1.1187107E1,3.902104E0,1.4802115E1,8.384692E0,-9.375275E0,2.516365E1,1.4285399E1,1.5923197E1,3.574865E1,1.2468652E0,1.1636528E1,3.7494343E1,1.4370728E0,8.704979E0,2.257807E1],"split_indices":[0,0,0,0,0,69,168,0,2,198,93,0,0,0,0,78,82,197,6,47,0,168,0,116,2,0,0,1,0,61,0,1,0,45,0,0,0,152,0,78,0,198,2,1,8,1,197,25,0,0,0,61,195,229,0,0,0,112,117,116,0,152,0,63,0,0,0,0,0,0,0,0,82,1,0,0,0,0,0,0,0,0,0,0,0,0,0,0,0,0,0,0,0,0,0,0,0,0,0,0,0,0,0,0,0,0,0,0,0],"split_type":[0,0,0,0,0,0,0,0,0,0,0,0,0,0,0,0,0,0,0,0,0,0,0,0,0,0,0,0,0,0,0,0,0,0,0,0,0,0,0,0,0,0,0,0,0,0,0,0,0,0,0,0,0,0,0,0,0,0,0,0,0,0,0,0,0,0,0,0,0,0,0,0,0,0,0,0,0,0,0,0,0,0,0,0,0,0,0,0,0,0,0,0,0,0,0,0,0,0,0,0,0,0,0,0,0,0,0,0,0],"sum_hessian":[5.8E3,5.254E3,5.46E2,4.145E3,1.109E3,5.21E2,2.5E1,1.994E3,2.151E3,8.68E2,2.41E2,5.12E2,9E0,2.4E1,1E0,4.21E2,1.573E3,2.087E3,6.4E1,8.55E2,1.3E1,2.4E2,1E0,3.82E2,1.3E2,3E0,6E0,2.3E1,1E0,4.18E2,3E0,1.524E3,4.9E1,2.027E3,6E1,6E1,4E0,8.52E2,3E0,2.33E2,7E0,3.74E2,8E0,1.03E2,2.7E1,1.7E1,6E0,3.99E2,1.9E1,1E0,2E0,1.509E3,1.5E1,1.998E3,2.9E1,6E0,5.4E1,3.5E1,2.5E1,8.46E2,6E0,2.31E2,2E0,3.6E2,1.4E1,3E0,5E0,7.3E1,3E1,2.6E1,1E0,3E0,1.4E1,5E0,1E0,3.82E2,1.7E1,1.484E3,2.5E1,1.3E1,2E0,1.952E3,4.6E1,2.7E1,2E0,5E0,1E0,4.6E1,8E0,3.3E1,2E0,2.4E1,1E0,8.42E2,4E0,2.28E2,3E0,3.54E2,6E0,1.3E1,6E1,1.8E1,1.2E1,7E0,1.9E1,1.3E1,1E0,4E0,1E0],"tree_param":{"num_deleted":"0","num_feature":"244","num_nodes":"109","size_leaf_vector":"1"}},{"base_weights":[5.4608494E-1,-3.9990146E0,6.8247894E1,-8.804981E0,1.2887007E1,6.536594E1,1.1172817E2,-1.2804895E1,-4.2036567E0,1.1794666E1,1.6090256E1,6.26145E1,1.0641377E2,-1.5359072E1,-1.0466232E1,-4.4509487E0,8.048295E0,1.0567655E1,6.4119316E1,5.8533974E1,2.0080354E2,-1.4941735E1,-5.0634966E0,-1.0606024E1,4.9291215E0,-4.960983E0,1.0033456E1,1.0035567E1,2.6315847E1,7.6369524E0,1.5912555E1,4.909366E1,8.568008E1,3.004936E1,6.558142E1,-2.004783E1,-1.4195873E1,-1.0673683E1,6.9232903E0,-5.138854E0,3.7614532E1,7.20745E0,8.726889E0,9.406095E0,8.928322E1,4.694446E1,3.0292591E1,9.648261E1,4.3047073E1,-4.0621614E0,1.3875977E0,-2.874998E0,1.0665956E0,-2.148223E0,6.882698E0,-9.5968056E-1,-5.0734415E0,5.10111E0,1.2237741E1,1.6670853E0,-6.2727084E0,1.7611383E0,1.4143996E1,1.0868202E1,2.8210794E1,9.666229E0,-6.743984E0,4.3004293E0,2.1132528E1,9.919617E0,-8.142209E0],"categories":[],"categories_nodes":[],"categories_segments":[],"categories_sizes":[],"default_left":[0,0,0,0,0,0,0,0,0,0,0,0,0,0,0,0,0,0,0,0,0,0,0,0,0,0,0,0,0,0,0,0,0,0,0,0,0,0,0,0,0,0,0,0,0,0,0,0,0,0,0,0,0,0,0,0,0,0,0,0,0,0,0,0,0,0,0,0,0,0,0],"id":6,"left_children":[1,3,5,7,9,11,-1,13,15,17,-1,19,-1,21,23,25,-1,27,29,31,33,35,-1,37,-1,39,41,43,-1,-1,-1,45,47,-1,-1,49,51,53,-1,55,57,59,-1,61,63,65,-1,67,69,-1,-1,-1,-1,-1,-1,-1,-1,-1,-1,-1,-1,-1,-1,-1,-1,-1,-1,-1,-1,-1,-1],"loss_changes":[1.7853071E6,4.4134584E5,4.7933612E5,7.785416E4,8.798394E4,4.340985E5,0E0,1.3362906E4,2.1831254E4,7.553131E4,0E0,1.92936E5,0E0,4.110203E3,6.07775E3,1.4529352E4,0E0,7.3434914E4,7.7759375E3,8.6512375E4,1.49924375E4,3.6723906E3,0E0,3.9830469E3,0E0,1.4536484E4,6.0475986E3,5.6876297E4,0E0,0E0,0E0,5.119275E4,3.7295688E4,0E0,0E0,1.0634727E3,3.2597969E3,3.9571562E3,0E0,1.2873605E4,7.2302246E2,3.0023801E3,0E0,4.1675438E4,8.615844E3,3.0824188E4,0E0,4.6598875E4,1.2993195E4,0E0,0E0,0E0,0E0,0E0,0E0,0E0,0E0,0E0,0E0,0E0,0E0,0E0,0E0,0E0,0E0,0E0,0E0,0E0,0E0,0E0,0E0],"parents":[2147483647,0,0,1,1,2,2,3,3,4,4,5,5,7,7,8,8,9,9,11,11,13,13,14,14,15,15,17,17,18,18,19,19,20,20,21,21,23,23,25,25,26,26,27,27,31,31,32,32,35,35,36,36,37,37,39,39,40,40,41,41,43,43,44,44,45,45,47,47,48,48],"right_children":[2,4,6,8,10,12,-1,14,16,18,-1,20,-1,22,24,26,-1,28,30,32,34,36,-1,38,-1,40,42,44,-1,-1,-1,46,48,-1,-1,50,52,54,-1,56,58,60,-1,62,64,66,-1,68,70,-1,-1,-1,-1,-1,-1,-1,-1,-1,-1,-1,-1,-1,-1,-1,-1,-1,-1,-1,-1,-1,-1],"split_conditions":[2.658E3,1.62E3,1E0,1.2E3,1E0,3E4,1.1172817E2,1.03E3,1E0,1E0,1.6090256E1,1E0,1.0641377E2,1E0,1E0,4E0,8.048295E0,1E0,1.767E3,3.96E3,4.2E3,5.95E2,-5.0634966E0,1E0,4.9291215E0,1E0,1E0,1E0,2.6315847E1,7.6369524E0,1.5912555E1,1E0,6E0,3.004936E1,6.558142E1,1E0,3E0,1E0,6.9232903E0,1E0,3E0,1E0,8.726889E0,1E0,4E0,1E0,3.0292591E1,4E0,1E0,-4.0621614E0,1.3875977E0,-2.874998E0,1.0665956E0,-2.148223E0,6.882698E0,-9.5968056E-1,-5.0734415E0,5.10111E0,1.2237741E1,1.6670853E0,-6.2727084E0,1.7611383E0,1.4143996E1,1.0868202E1,2.8210794E1,9.666229E0,-6.743984E0,4.3004293E0,2.1132528E1,9.919617E0,-8.142209E0],"split_indices":[0,0,168,0,168,0,0,0,198,198,0,69,0,61,41,2,0,87,0,0,0,0,0,60,0,116,6,116,0,0,0,198,1,0,0,116,1,198,0,45,1,25,0,84,2,63,0,1,64,0,0,0,0,0,0,0,0,0,0,0,0,0,0,0,0,0,0,0,0,0,0],"split_type":[0,0,0,0,0,0,0,0,0,0,0,0,0,0,0,0,0,0,0,0,0,0,0,0,0,0,0,0,0,0,0,0,0,0,0,0,0,0,0,0,0,0,0,0,0,0,0,0,0,0,0,0,0,0,0,0,0,0,0,0,0,0,0,0,0,0,0,0,0,0,0],"sum_hessian":[5.8E3,5.436E3,3.64E2,4.232E3,1.204E3,3.63E2,1E0,2.263E3,1.969E3,1.186E3,1.8E1,3.62E2,1E0,1.079E3,1.184E3,1.959E3,1E1,1.16E3,2.6E1,3.53E2,9E0,1.038E3,4.1E1,1.18E3,4E0,1.893E3,6.6E1,1.156E3,4E0,1.1E1,1.5E1,2.64E2,8.9E1,8E0,1E0,1.29E2,9.09E2,1.179E3,1E0,1.886E3,7E0,6.2E1,4E0,1.148E3,8E0,2.6E2,4E0,7E1,1.9E1,1.28E2,1E0,9.01E2,8E0,1.178E3,1E0,1.856E3,3E1,6E0,1E0,6.1E1,1E0,1.138E3,1E1,6E0,2E0,2.56E2,4E0,8E0,6.2E1,1.8E1,1E0],"tree_param":{"num_deleted":"0","num_feature":"244","num_nodes":"71","size_leaf_vector":"1"}},{"base_weights":[5.274816E-1,-4.6015363E0,4.0554813E1,-8.723413E0,3.3951788E0,3.5443707E1,1.6362747E2,-1.2261453E1,-7.0146756E0,1.090496E0,9.8942175E0,3.32308E1,1.7020592E2,1.2995042E2,1.0055536E2,-1.2018962E1,-4.9607015E0,-7.221863E0,2.4903982E1,6.416268E-1,6.5699496E0,9.451818E0,2.1207092E1,3.1619226E1,1.2918057E2,2.470725E1,5.902328E1,9.545987E1,9.577239E1,-1.1660003E1,-4.089256E0,-7.8474226E0,1.0485189E0,2.6355314E1,4.5853195E-1,3.388363E-1,4.3230145E1,8.923796E0,1.3403892E1,2.2569767E1,4.5606686E1,9.262955E0,3.161562E1,1.01000984E2,-3.198581E0,-1.1417127E1,-4.702456E0,-7.9640274E0,6.9010925E0,6.632261E0,-7.974428E0,1.8163313E1,7.493651E0,1.16962224E-1,4.029116E1,4.37376E0,1.0053203E1,9.725114E0,-1.5176479E1,2.128375E1,2.7369696E1,5.045286E1,1.1150239E1,1.05964615E2,-8.198883E-1,-2.2413151E0,-5.1612926E0,-1.641532E0,1.8435236E0,1.1221942E0,5.948096E0,-2.014006E0,7.3191476E0,5.5360765E0,6.220334E-1,1.5802885E-3,1.3764261E1,2.253908E0,8.649968E0,2.078293E0,-3.9934235E0,-1.8532047E0,-4.121514E0,6.4835267E0,1.6727723E0,8.177161E0,1.42625885E1,-1.8736235E0,1.6567438E1,6.617902E0,2.3145931E1],"categories":[],"categories_nodes":[],"categories_segments":[],"categories_sizes":[],"default_left":[0,0,0,0,0,0,0,0,0,0,0,0,0,0,0,0,0,0,0,0,0,0,0,0,0,0,0,0,0,0,0,0,0,0,0,0,0,0,0,0,0,0,0,0,0,0,0,0,0,0,0,0,0,0,0,0,0,0,0,0,0,0,0,0,0,0,0,0,0,0,0,0,0,0,0,0,0,0,0,0,0,0,0,0,0,0,0,0,0,0,0],"id":7,"left_children":[1,3,5,7,9,11,13,15,17,19,21,23,25,27,-1,29,-1,31,33,35,-1,37,-1,39,41,-1,-1,43,-1,45,-1,47,49,51,-1,53,55,57,-1,59,61,-1,-1,63,-1,65,-1,67,-1,69,71,73,-1,75,77,-1,-1,79,81,83,-1,85,87,89,-1,-1,-1,-1,-1,-1,-1,-1,-1,-1,-1,-1,-1,-1,-1,-1,-1,-1,-1,-1,-1,-1,-1,-1,-1,-1,-1],"loss_changes":[1.1911374E6,1.6955047E5,4.0873638E5,2.0432688E4,2.6201104E4,1.8341281E5,2.3162419E5,3.0595156E3,1.5330555E4,1.8411607E4,1.8477828E4,9.2559125E4,2.1837719E4,2.5514172E5,0E0,3.0437812E3,0E0,1.1788555E4,4.318252E2,1.6439877E4,0E0,1.3293371E4,0E0,7.694331E4,1.6624797E4,0E0,0E0,1.6437047E4,0E0,2.7339844E3,0E0,1.0729742E4,8.1643594E3,5.9397363E2,0E0,1.1235328E4,2.5340234E2,8.915246E3,0E0,5.234597E4,3.9680156E4,0E0,0E0,1.2433031E4,0E0,2.8132031E3,0E0,8.916469E3,0E0,2.193146E3,6.1594004E3,1.3465276E3,0E0,9.455559E3,1.1365527E2,0E0,0E0,8.913082E3,2.9055298E2,5.3384375E4,0E0,3.91935E4,4.6373875E4,1.1826375E4,0E0,0E0,0E0,0E0,0E0,0E0,0E0,0E0,0E0,0E0,0E0,0E0,0E0,0E0,0E0,0E0,0E0,0E0,0E0,0E0,0E0,0E0,0E0,0E0,0E0,0E0,0E0],"parents":[2147483647,0,0,1,1,2,2,3,3,4,4,5,5,6,6,7,7,8,8,9,9,10,10,11,11,12,12,13,13,15,15,17,17,18,18,19,19,21,21,23,23,24,24,27,27,29,29,31,31,32,32,33,33,35,35,36,36,37,37,39,39,40,40,43,43,45,45,47,47,49,49,50,50,51,51,53,53,54,54,57,57,58,58,59,59,61,61,62,62,63,63],"right_children":[2,4,6,8,10,12,14,16,18,20,22,24,26,28,-1,30,-1,32,34,36,-1,38,-1,40,42,-1,-1,44,-1,46,-1,48,50,52,-1,54,56,58,-1,60,62,-1,-1,64,-1,66,-1,68,-1,70,72,74,-1,76,78,-1,-1,80,82,84,-1,86,88,90,-1,-1,-1,-1,-1,-1,-1,-1,-1,-1,-1,-1,-1,-1,-1,-1,-1,-1,-1,-1,-1,-1,-1,-1,-1,-1,-1],"split_conditions":[2.15E3,1.35E3,5.4E3,1.035E3,1.8E3,1E0,1E0,1E0,1E0,1E0,1E0,1E0,4.2E3,3E4,1.0055536E2,1E0,-4.9607015E0,3E0,1.322E3,1E0,6.5699496E0,1E0,2.1207092E1,2.99E3,4E0,2.470725E1,5.902328E1,1E0,9.577239E1,1E0,-4.089256E0,1E0,1.205E3,1.291E3,4.5853195E-1,1E0,3E0,1E0,1.3403892E1,1E0,6E0,9.262955E0,3.161562E1,1E0,-3.198581E0,1E0,-4.702456E0,1E0,6.9010925E0,1E0,1E0,1.25E3,7.493651E0,1E0,1.409E3,4.37376E0,1.0053203E1,1E0,1.862E3,4E0,2.7369696E1,5E0,9E0,4E0,-8.198883E-1,-2.2413151E0,-5.1612926E0,-1.641532E0,1.8435236E0,1.1221942E0,5.948096E0,-2.014006E0,7.3191476E0,5.5360765E0,6.220334E-1,1.5802885E-3,1.3764261E1,2.253908E0,8.649968E0,2.078293E0,-3.9934235E0,-1.8532047E0,-4.121514E0,6.4835267E0,1.6727723E0,8.177161E0,1.42625885E1,-1.8736235E0,1.6567438E1,6.617902E0,2.3145931E1],"split_indices":[0,0,0,0,0,69,168,20,152,198,93,116,0,0,0,61,0,1,0,116,0,205,0,0,2,0,0,197,0,25,0,198,0,0,0,100,1,97,0,3,2,0,0,82,0,206,0,99,0,195,178,0,0,87,0,0,0,135,0,2,0,1,1,1,0,0,0,0,0,0,0,0,0,0,0,0,0,0,0,0,0,0,0,0,0,0,0,0,0,0,0],"split_type":[0,0,0,0,0,0,0,0,0,0,0,0,0,0,0,0,0,0,0,0,0,0,0,0,0,0,0,0,0,0,0,0,0,0,0,0,0,0,0,0,0,0,0,0,0,0,0,0,0,0,0,0,0,0,0,0,0,0,0,0,0,0,0,0,0,0,0,0,0,0,0,0,0,0,0,0,0,0,0,0,0,0,0,0,0,0,0,0,0,0,0],"sum_hessian":[5.8E3,5.142E3,6.58E2,3.393E3,1.749E3,6.33E2,2.5E1,1.103E3,2.29E3,1.292E3,4.57E2,6.24E2,9E0,2.4E1,1E0,1.084E3,1.9E1,2.276E3,1.4E1,1.275E3,1.7E1,4.56E2,1E0,6.15E2,9E0,8E0,1E0,2.3E1,1E0,1.042E3,4.2E1,2.116E3,1.6E2,1.3E1,1E0,1.267E3,8E0,4.53E2,3E0,3.75E2,2.4E2,3E0,6E0,2.2E1,1E0,1.023E3,1.9E1,2.111E3,5E0,9.9E1,6.1E1,9E0,4E0,1.261E3,6E0,3E0,5E0,4.39E2,1.4E1,3.72E2,3E0,2.1E2,3E1,2.1E1,1E0,1.01E3,1.3E1,2.082E3,2.9E1,9.6E1,3E0,5.9E1,2E0,5E0,4E0,1.26E3,1E0,1E0,5E0,4.3E2,9E0,8E0,6E0,1.99E2,1.73E2,1.46E2,6.4E1,2.4E1,6E0,3E0,1.8E1],"tree_param":{"num_deleted":"0","num_feature":"244","num_nodes":"91","size_leaf_vector":"1"}},{"base_weights":[5.088958E-1,-2.5485299E0,4.605058E1,-6.4115863E0,6.4463387E0,4.3690834E1,9.049983E1,-8.897433E0,-4.0977077E0,5.796735E0,5.8579548E1,4.1436672E1,8.619515E1,-9.0170965E0,1.1742974E1,-4.2992716E0,5.8365397E0,5.4724956E0,2.182145E1,7.831451E0,1.3652928E1,3.8407158E1,1.4453778E2,-9.167544E0,5.004153E0,-2.4191046E0,1.7356142E1,-4.4575434E0,6.9792023E0,4.76893E0,4.657172E1,3.703158E1,2.9902395E1,2.031485E1,5.3120953E1,-1.2894305E1,-8.576376E0,7.1618752E0,-3.5992577E0,9.232254E-1,-1.2605782E0,4.203785E0,-8.283329E-1,-4.071315E0,-1.823395E1,4.5017323E0,1.76606E1,3.5151193E0,1.1168317E1,3.571945E1,2.4137428E1,-2.6524122E0,7.9299015E-1,-1.6860598E0,-4.821052E0,2.0243099E0,-2.3993804E0,-7.352446E-1,-3.4059181E0,-3.6806448E0,-9.4316864E-1,8.2802117E-1,1.1147863E1,5.955272E0,1.0574538E1],"categories":[],"categories_nodes":[],"categories_segments":[],"categories_sizes":[],"default_left":[0,0,0,0,0,0,0,0,0,0,0,0,0,0,0,0,0,0,0,0,0,0,0,0,0,0,0,0,0,0,0,0,0,0,0,0,0,0,0,0,0,0,0,0,0,0,0,0,0,0,0,0,0,0,0,0,0,0,0,0,0,0,0,0,0],"id":8,"left_children":[1,3,5,7,9,11,-1,13,15,17,19,21,-1,23,25,27,-1,29,-1,-1,-1,31,33,35,37,39,41,43,-1,45,47,49,-1,-1,-1,51,53,55,-1,-1,-1,-1,-1,57,59,61,-1,-1,-1,63,-1,-1,-1,-1,-1,-1,-1,-1,-1,-1,-1,-1,-1,-1,-1],"loss_changes":[8.0785044E5,1.8896448E5,3.3030706E5,2.1843953E4,5.4997375E4,2.9991488E5,0E0,4.6332344E3,1.3353906E4,5.3501074E4,1.0890781E3,1.0783031E5,0E0,3.8914375E3,9.1642175E2,1.2320621E4,0E0,4.636159E4,0E0,0E0,0E0,4.856622E4,2.5036031E4,3.863875E3,1.1214585E3,1.3838829E2,7.1698755E2,1.0322695E4,0E0,3.4979832E4,6.275879E3,3.4217312E4,0E0,0E0,0E0,1.5716016E3,3.3355078E3,1.1987983E3,0E0,0E0,0E0,0E0,0E0,9.675084E3,3.4492188E1,2.906337E4,0E0,0E0,0E0,3.38E4,0E0,0E0,0E0,0E0,0E0,0E0,0E0,0E0,0E0,0E0,0E0,0E0,0E0,0E0,0E0],"parents":[2147483647,0,0,1,1,2,2,3,3,4,4,5,5,7,7,8,8,9,9,10,10,11,11,13,13,14,14,15,15,17,17,21,21,22,22,23,23,24,24,25,25,26,26,27,27,29,29,30,30,31,31,35,35,36,36,37,37,43,43,44,44,45,45,49,49],"right_children":[2,4,6,8,10,12,-1,14,16,18,20,22,-1,24,26,28,-1,30,-1,-1,-1,32,34,36,38,40,42,44,-1,46,48,50,-1,-1,-1,52,54,56,-1,-1,-1,-1,-1,58,60,62,-1,-1,-1,64,-1,-1,-1,-1,-1,-1,-1,-1,-1,-1,-1,-1,-1,-1,-1],"split_conditions":[2.658E3,1.466E3,1E0,1.145E3,1E0,3E4,9.049983E1,1E0,1E0,1E0,2.225E3,1E0,8.619515E1,3E0,1.035E3,1E0,5.8365397E0,1E0,2.182145E1,7.831451E0,1.3652928E1,1E0,4.2E3,6.56E2,1E0,7.5E2,1.05E3,1E0,6.9792023E0,1E0,1.65E3,1E0,2.9902395E1,2.031485E1,5.3120953E1,1E0,1E0,1E0,-3.5992577E0,9.232254E-1,-1.2605782E0,4.203785E0,-8.283329E-1,1E0,1.447E3,1E0,1.76606E1,3.5151193E0,1.1168317E1,3.96E3,2.4137428E1,-2.6524122E0,7.9299015E-1,-1.6860598E0,-4.821052E0,2.0243099E0,-2.3993804E0,-7.352446E-1,-3.4059181E0,-3.6806448E0,-9.4316864E-1,8.2802117E-1,1.1147863E1,5.955272E0,1.0574538E1],"split_indices":[0,0,168,0,168,0,0,158,198,87,0,69,0,1,0,116,0,198,0,0,0,152,0,0,53,0,0,229,0,67,0,198,0,0,0,168,133,135,0,0,0,0,0,197,0,116,0,0,0,0,0,0,0,0,0,0,0,0,0,0,0,0,0,0,0],"split_type":[0,0,0,0,0,0,0,0,0,0,0,0,0,0,0,0,0,0,0,0,0,0,0,0,0,0,0,0,0,0,0,0,0,0,0,0,0,0,0,0,0,0,0,0,0,0,0,0,0,0,0,0,0,0,0,0,0,0,0,0,0,0,0,0,0],"sum_hessian":[5.8E3,5.436E3,3.64E2,3.803E3,1.633E3,3.63E2,1E0,1.832E3,1.971E3,1.614E3,1.9E1,3.62E2,1E0,1.822E3,1E1,1.96E3,1.1E1,1.61E3,4E0,8E0,1.1E1,3.53E2,9E0,1.803E3,1.9E1,3E0,7E0,1.953E3,7E0,1.584E3,2.6E1,3.5E2,3E0,8E0,1E0,2.44E2,1.559E3,1.8E1,1E0,1E0,2E0,6E0,1E0,1.901E3,5.2E1,1.58E3,4E0,7E0,1.9E1,3.46E2,4E0,2.39E2,5E0,1.546E3,1.3E1,1.6E1,2E0,1.846E3,5.5E1,5.1E1,1E0,1.57E3,1E1,2.59E2,8.7E1],"tree_param":{"num_deleted":"0","num_feature":"244","num_nodes":"65","size_leaf_vector":"1"}},{"base_weights":[4.766008E-1,-3.252128E0,2.5592682E1,-6.147327E0,9.3872315E-1,2.4591127E1,7.757564E1,-6.87631E0,2.3046885E0,6.970068E-1,3.3926823E1,1.7512438E1,5.05401E1,-6.6951137E0,-4.617528E0,1.7592381E0,3.3773727E1,5.512539E-1,5.0282574E1,9.583359E-2,7.2563434E0,1.6749792E1,3.2230736E1,4.5735332E1,8.1449844E1,-6.7931833E0,2.0580635E1,2.4102726E0,-1.9790213E1,8.915763E0,1.3584748E-1,4.484508E-1,1.4082137E1,4.4019046E0,1.1783344E1,1.5820328E1,1.2196116E2,4.0895004E1,1.6234785E2,-6.5794973E0,-1.6293905E1,2.7251572E1,7.522675E-1,3.3586452E0,-2.4787846E0,-9.004135E-1,-4.317579E0,1.8812503E-1,2.5517544E1,1.5123107E1,2.2627314E1,3.6728456E0,2.8653868E1,3.8340992E1,2.5417036E1,1.9839941E1,4.7808857E1,-1.2714564E0,-3.2168758E0,-2.676851E0,-4.9380674E0,3.2266214E0,7.3396983E0,1.1644186E0,-5.4328567E-1,5.9437654E-3,8.0205555E0,4.1374736E0,9.520564E0,2.8036964E0,1.5359075E1,1.4731684E1,6.539881E0],"categories":[],"categories_nodes":[],"categories_segments":[],"categories_sizes":[],"default_left":[0,0,0,0,0,0,0,0,0,0,0,0,0,0,0,0,0,0,0,0,0,0,0,0,0,0,0,0,0,0,0,0,0,0,0,0,0,0,0,0,0,0,0,0,0,0,0,0,0,0,0,0,0,0,0,0,0,0,0,0,0,0,0,0,0,0,0,0,0,0,0,0,0],"id":9,"left_children":[1,3,5,7,9,11,-1,13,15,17,19,21,23,25,-1,27,29,31,33,-1,-1,35,-1,37,-1,39,41,43,45,-1,-1,47,-1,-1,-1,49,51,53,55,57,59,61,-1,63,-1,-1,-1,65,67,69,-1,-1,-1,71,-1,-1,-1,-1,-1,-1,-1,-1,-1,-1,-1,-1,-1,-1,-1,-1,-1,-1,-1],"loss_changes":[5.4335294E5,6.130345E4,2.6259794E5,1.842604E4,1.6442174E4,1.3669478E5,0E0,7.9263047E3,4.0258066E3,1.479535E4,1.1640996E3,6.193372E4,2.5559906E5,7.420922E3,0E0,3.3446174E3,1.4000752E3,1.4662317E4,1.679541E2,0E0,0E0,5.5571125E4,0E0,8.310719E4,0E0,5.4006484E3,1.01950195E3,3.2567622E3,9.519214E1,0E0,0E0,1.3334611E4,0E0,0E0,0E0,3.7913953E4,8.406281E3,2.9027562E4,5.346297E3,5.5054688E3,1.1109482E3,1.4318701E2,0E0,3.2483906E3,0E0,0E0,0E0,1.2796009E4,1.255416E3,3.8503938E4,0E0,0E0,0E0,2.767761E4,0E0,0E0,0E0,0E0,0E0,0E0,0E0,0E0,0E0,0E0,0E0,0E0,0E0,0E0,0E0,0E0,0E0,0E0,0E0],"parents":[2147483647,0,0,1,1,2,2,3,3,4,4,5,5,7,7,8,8,9,9,10,10,11,11,12,12,13,13,15,15,16,16,17,17,18,18,21,21,23,23,25,25,26,26,27,27,28,28,31,31,35,35,36,36,37,37,38,38,39,39,40,40,41,41,43,43,47,47,48,48,49,49,53,53],"right_children":[2,4,6,8,10,12,-1,14,16,18,20,22,24,26,-1,28,30,32,34,-1,-1,36,-1,38,-1,40,42,44,46,-1,-1,48,-1,-1,-1,50,52,54,56,58,60,62,-1,64,-1,-1,-1,66,68,70,-1,-1,-1,72,-1,-1,-1,-1,-1,-1,-1,-1,-1,-1,-1,-1,-1,-1,-1,-1,-1,-1,-1],"split_conditions":[2.02371E3,1.27E3,3E4,3E0,1E0,3.5E3,7.757564E1,1E0,1E0,1E0,1.291E3,1E0,1E0,1E0,-4.617528E0,1E0,1.205E3,1E0,1.569E3,9.583359E-2,7.2563434E0,1E0,3.2230736E1,1E0,8.1449844E1,1E0,1.25E3,1E0,9.8E2,8.915763E0,1.3584748E-1,1E0,1.4082137E1,4.4019046E0,1.1783344E1,1E0,3E0,1E0,4.2E3,1E0,1.232E3,1.145E3,7.522675E-1,1.205E3,-2.4787846E0,-9.004135E-1,-4.317579E0,1E0,4E0,1E0,2.2627314E1,3.6728456E0,2.8653868E1,3.596E3,2.5417036E1,1.9839941E1,4.7808857E1,-1.2714564E0,-3.2168758E0,-2.676851E0,-4.9380674E0,3.2266214E0,7.3396983E0,1.1644186E0,-5.4328567E-1,5.9437654E-3,8.0205555E0,4.1374736E0,9.520564E0,2.8036964E0,1.5359075E1,1.4731684E1,6.539881E0],"split_indices":[0,0,0,2,152,0,0,206,33,47,0,93,168,152,0,61,0,87,0,0,0,33,0,69,0,97,0,52,0,0,0,198,0,0,0,3,1,152,0,82,0,0,0,0,0,0,0,168,1,116,0,0,0,0,0,0,0,0,0,0,0,0,0,0,0,0,0,0,0,0,0,0,0],"split_type":[0,0,0,0,0,0,0,0,0,0,0,0,0,0,0,0,0,0,0,0,0,0,0,0,0,0,0,0,0,0,0,0,0,0,0,0,0,0,0,0,0,0,0,0,0,0,0,0,0,0,0,0,0,0,0,0,0,0,0,0,0,0,0,0,0,0,0,0,0,0,0,0,0],"sum_hessian":[5.8E3,5.051E3,7.49E2,2.987E3,2.064E3,7.48E2,1E0,2.75E3,2.37E2,2.05E3,1.4E1,5.89E2,1.59E2,2.721E3,2.9E1,2.34E2,3E0,2.045E3,5E0,1E0,1.3E1,5.87E2,2E0,1.58E2,1E0,2.712E3,9E0,2.28E2,6E0,2E0,1E0,2.043E3,2E0,2E0,3E0,5.83E2,4E0,1.53E2,5E0,2.654E3,5.8E1,6E0,3E0,2.15E2,1.3E1,1E0,5E0,2.023E3,2E1,5.8E2,3E0,1E0,3E0,1.5E2,3E0,4E0,1E0,2.595E3,5.9E1,4.5E1,1.3E1,4E0,2E0,1.53E2,6.2E1,2.016E3,7E0,1.8E1,2E0,5.71E2,9E0,1.9E1,1.31E2],"tree_param":{"num_deleted":"0","num_feature":"244","num_nodes":"73","size_leaf_vector":"1"}},{"base_weights":[4.5619667E-1,-1.6307697E0,3.154217E1,-3.5430648E0,7.124311E0,2.9614954E1,7.330486E1,-4.9190083E0,-7.5521827E-1,6.704888E0,1.7430286E1,2.7773176E1,6.981807E1,-5.5030117E0,1.8520528E0,-1.1570357E0,1.7412949E1,5.9186583E0,4.5787617E1,2.539635E1,1.0913545E2,-5.5852475E0,1.7596367E1,1.377281E0,2.9281885E1,-7.5585824E-1,-1.6837679E1,1.982272E1,-5.728992E0,5.1418667E0,4.1898884E1,5.7953005E0,1.0635879E1,2.6423817E1,-1.03210945E1,1.4690552E1,4.3027973E1,-5.4390078E0,-3.7248058E0,2.331073E1,6.394276E-1,1.9201057E0,-1.6577597E1,3.863497E1,1.22262575E-1,-3.47945E-1,-1.631488E1,-9.06346E0,-3.559843E0,1.4513585E1,3.952518E1,4.7742453E0,1.4498222E1,2.739169E1,1.0255651E1,2.9689562E1,1.7681147E0,-1.0584837E0,-3.6745071E0,2.7103612E0,6.361072E0,5.379583E-1,-2.018439E0,-8.103722E-1,-3.5979822E0,9.544271E0,2.0462205E0,-6.769037E0,-3.5282407E-2,-2.639245E0,-3.804838E0,-2.166726E0,-2.1260833E-2,3.3161244E0,-3.716234E0,1.00482855E1,-1.4056053E0,8.5096806E-1,1.0426799E1,4.9944E-1,5.976055E0,6.1027665E0,-1.29114275E1,-1.5263695E0,5.790544E0],"categories":[],"categories_nodes":[],"categories_segments":[],"categories_sizes":[],"default_left":[0,0,0,0,0,0,0,0,0,0,0,0,0,0,0,0,0,0,0,0,0,0,0,0,0,0,0,0,0,0,0,0,0,0,0,0,0,0,0,0,0,0,0,0,0,0,0,0,0,0,0,0,0,0,0,0,0,0,0,0,0,0,0,0,0,0,0,0,0,0,0,0,0,0,0,0,0,0,0,0,0,0,0,0,0],"id":10,"left_children":[1,3,5,7,9,11,-1,13,15,17,-1,19,-1,21,23,25,27,29,31,33,35,37,39,41,43,45,47,49,-1,51,53,-1,-1,55,-1,-1,-1,57,-1,59,-1,61,63,65,-1,67,69,71,-1,73,75,77,-1,79,-1,81,83,-1,-1,-1,-1,-1,-1,-1,-1,-1,-1,-1,-1,-1,-1,-1,-1,-1,-1,-1,-1,-1,-1,-1,-1,-1,-1,-1,-1],"loss_changes":[3.7639353E5,9.105312E4,2.247831E5,1.7115992E4,3.2141746E4,2.0448338E5,0E0,1.1825711E4,1.0795368E4,2.9565879E4,0E0,6.742669E4,0E0,5.3240703E3,3.0591235E3,9.077364E3,4.1194688E3,2.6420082E4,8.200625E2,2.9370922E4,2.2022617E4,5.127125E3,7.4829663E2,2.3222234E3,1.0490154E3,8.943215E3,1.0778516E2,2.66904E3,0E0,2.2778852E4,1.3167695E3,0E0,0E0,2.812925E4,0E0,0E0,0E0,5.046375E3,0E0,1.492688E2,0E0,2.1444104E3,5.093933E1,2.8602393E2,0E0,7.8946157E3,5.313086E1,9.398251E1,0E0,2.0866973E3,3.3463525E3,2.265513E4,0E0,5.449048E2,0E0,2.5974469E4,1.0953401E4,0E0,0E0,0E0,0E0,0E0,0E0,0E0,0E0,0E0,0E0,0E0,0E0,0E0,0E0,0E0,0E0,0E0,0E0,0E0,0E0,0E0,0E0,0E0,0E0,0E0,0E0,0E0,0E0],"parents":[2147483647,0,0,1,1,2,2,3,3,4,4,5,5,7,7,8,8,9,9,11,11,13,13,14,14,15,15,16,16,17,17,18,18,19,19,20,20,21,21,22,22,23,23,24,24,25,25,26,26,27,27,29,29,30,30,33,33,37,37,39,39,41,41,42,42,43,43,45,45,46,46,47,47,49,49,50,50,51,51,53,53,55,55,56,56],"right_children":[2,4,6,8,10,12,-1,14,16,18,-1,20,-1,22,24,26,28,30,32,34,36,38,40,42,44,46,48,50,-1,52,54,-1,-1,56,-1,-1,-1,58,-1,60,-1,62,64,66,-1,68,70,72,-1,74,76,78,-1,80,-1,82,84,-1,-1,-1,-1,-1,-1,-1,-1,-1,-1,-1,-1,-1,-1,-1,-1,-1,-1,-1,-1,-1,-1,-1,-1,-1,-1,-1,-1],"split_conditions":[2.658E3,1.703E3,1E0,1.27E3,1E0,3E4,7.330486E1,3E0,4E0,1E0,1.7430286E1,1E0,6.981807E1,1E0,1E0,1E0,1E0,1E0,2.225E3,1E0,4.2E3,1E0,1.25E3,1E0,1.205E3,1E0,1.291E3,1.62E3,-5.728992E0,1E0,2.4E3,5.7953005E0,1.0635879E1,1E0,-1.03210945E1,1.4690552E1,4.3027973E1,1E0,-3.7248058E0,1.145E3,6.394276E-1,1E0,9.8E2,4E0,1.22262575E-1,2E0,1.35E3,1.287E3,-3.559843E0,1E0,1E0,1E0,1.4498222E1,3E0,1.0255651E1,1E0,3.96E3,-1.0584837E0,-3.6745071E0,2.7103612E0,6.361072E0,5.379583E-1,-2.018439E0,-8.103722E-1,-3.5979822E0,9.544271E0,2.0462205E0,-6.769037E0,-3.5282407E-2,-2.639245E0,-3.804838E0,-2.166726E0,-2.1260833E-2,3.3161244E0,-3.716234E0,1.00482855E1,-1.4056053E0,8.5096806E-1,1.0426799E1,4.9944E-1,5.976055E0,6.1027665E0,-1.29114275E1,-1.5263695E0,5.790544E0],"split_indices":[0,0,168,0,87,0,0,2,1,168,0,69,0,152,33,197,25,198,0,123,0,206,0,61,0,229,0,0,0,67,0,0,0,238,0,0,0,45,0,0,0,52,0,2,0,2,0,0,0,62,90,84,0,1,0,36,0,0,0,0,0,0,0,0,0,0,0,0,0,0,0,0,0,0,0,0,0,0,0,0,0,0,0,0,0],"split_type":[0,0,0,0,0,0,0,0,0,0,0,0,0,0,0,0,0,0,0,0,0,0,0,0,0,0,0,0,0,0,0,0,0,0,0,0,0,0,0,0,0,0,0,0,0,0,0,0,0,0,0,0,0,0,0,0,0,0,0,0,0,0,0,0,0,0,0,0,0,0,0,0,0,0,0,0,0,0,0,0,0,0,0,0,0],"sum_hessian":[5.8E3,5.436E3,3.64E2,4.462E3,9.74E2,3.63E2,1E0,2.987E3,1.475E3,9.7E2,4E0,3.62E2,1E0,2.75E3,2.37E2,1.444E3,3.1E1,9.52E2,1.8E1,3.53E2,9E0,2.741E3,9E0,2.34E2,3E0,1.409E3,3.5E1,3E1,1E0,9.33E2,1.9E1,7E0,1.1E1,3.49E2,4E0,8E0,1E0,2.712E3,2.9E1,6E0,3E0,2.28E2,6E0,2E0,1E0,1.374E3,3.5E1,5E0,3E1,2.5E1,5E0,9.29E2,4E0,9E0,1E1,3.08E2,4.1E1,2.683E3,2.9E1,4E0,2E0,2.15E2,1.3E1,1E0,5E0,1E0,1E0,6E0,1.368E3,1.9E1,1.6E1,4E0,1E0,2.4E1,1E0,4E0,1E0,9.2E2,9E0,1E0,8E0,3.06E2,2E0,3.1E1,1E1],"tree_param":{"num_deleted":"0","num_feature":"244","num_nodes":"85","size_leaf_vector":"1"}},{"base_weights":[4.0890622E-1,-1.0495564E0,3.0406172E1,-2.4816835E0,8.466439E0,2.8057898E1,6.597438E1,-2.5777435E0,7.228238E0,7.9191914E0,2.7469717E1,2.5809566E1,6.2836254E1,-3.9137666E0,-1.8383178E-1,7.3050213E0,1.890604E1,2.3267405E1,1.1690875E2,-4.3367105E0,6.709657E-1,-3.3412388E-1,4.2805298E1,6.6327987E0,8.596994E1,2.1599998E1,1.2499834E2,1.4370317E1,3.8725178E1,-4.5514693E0,5.968734E0,3.1558921E0,-4.0854597E0,-4.3122897E-1,1.1044851E1,3.8196888E0,9.976823E0,6.1269855E0,9.475646E1,6.411471E0,2.098238E1,2.0580645E1,2.835736E1,1.8183869E0,3.2120632E1,-9.204923E-1,6.354185E0,-1.6432523E0,1.6153595E0,5.1588124E-1,6.9542947E0,-3.122595E0,-3.5130727E-1,-1.49654E-1,3.2493432E0,1.1120698E0,1.6982138E1,3.220462E0,2.3121416E1,3.8389328E0,2.0689066E1],"categories":[],"categories_nodes":[],"categories_segments":[],"categories_sizes":[],"default_left":[0,0,0,0,0,0,0,0,0,0,0,0,0,0,0,0,0,0,0,0,0,0,0,0,0,0,0,0,0,0,0,0,0,0,0,0,0,0,0,0,0,0,0,0,0,0,0,0,0,0,0,0,0,0,0,0,0,0,0,0,0],"id":11,"left_children":[1,3,5,7,9,11,-1,13,-1,15,-1,17,-1,19,21,23,-1,25,27,29,31,33,35,37,39,41,43,-1,-1,45,47,49,51,53,-1,-1,-1,55,57,-1,-1,59,-1,-1,-1,-1,-1,-1,-1,-1,-1,-1,-1,-1,-1,-1,-1,-1,-1,-1,-1],"loss_changes":[2.5382503E5,7.542537E4,1.7991275E5,1.7938836E4,4.997637E4,1.6429561E5,0E0,1.5348021E4,0E0,3.7715457E4,0E0,5.911403E4,0E0,5.975289E3,1.1127097E4,3.7397844E4,0E0,4.157267E4,1.0284266E4,6.2683516E3,3.097748E3,9.27624E3,5.4189453E1,3.120078E4,2.7640625E3,2.869021E4,1.5047117E4,0E0,0E0,5.2637305E3,1.8007273E3,3.0451729E3,2.3887783E3,9.069803E3,0E0,0E0,0E0,3.1223494E4,4.69841E3,0E0,0E0,2.753057E4,0E0,0E0,0E0,0E0,0E0,0E0,0E0,0E0,0E0,0E0,0E0,0E0,0E0,0E0,0E0,0E0,0E0,0E0,0E0],"parents":[2147483647,0,0,1,1,2,2,3,3,4,4,5,5,7,7,9,9,11,11,13,13,14,14,15,15,17,17,18,18,19,19,20,20,21,21,22,22,23,23,24,24,25,25,26,26,29,29,30,30,31,31,32,32,33,33,37,37,38,38,41,41],"right_children":[2,4,6,8,10,12,-1,14,-1,16,-1,18,-1,20,22,24,-1,26,28,30,32,34,36,38,40,42,44,-1,-1,46,48,50,52,54,-1,-1,-1,56,58,-1,-1,60,-1,-1,-1,-1,-1,-1,-1,-1,-1,-1,-1,-1,-1,-1,-1,-1,-1,-1,-1],"split_conditions":[3E3,1.85E3,1E0,1E0,1E0,3E4,6.597438E1,1.287E3,7.228238E0,1E0,2.7469717E1,1E0,6.2836254E1,3E0,1E0,1E0,1.890604E1,1E0,4.2E3,1E0,1.205E3,1E0,1.569E3,1E0,2.225E3,1E0,3.227E3,1.4370317E1,3.8725178E1,1E0,7.11E2,1E0,1.232E3,1E0,1.1044851E1,3.8196888E0,9.976823E0,1E0,3E0,6.411471E0,2.098238E1,1E0,2.835736E1,1.8183869E0,3.2120632E1,-9.204923E-1,6.354185E0,-1.6432523E0,1.6153595E0,5.1588124E-1,6.9542947E0,-3.122595E0,-3.5130727E-1,-1.49654E-1,3.2493432E0,1.1120698E0,1.6982138E1,3.220462E0,2.3121416E1,3.8389328E0,2.0689066E1],"split_indices":[0,0,168,100,93,0,0,0,0,3,0,69,0,2,47,27,0,116,0,238,0,87,0,33,0,47,0,0,0,68,0,33,0,99,0,0,0,205,1,0,0,152,0,0,0,0,0,0,0,0,0,0,0,0,0,0,0,0,0,0,0],"split_type":[0,0,0,0,0,0,0,0,0,0,0,0,0,0,0,0,0,0,0,0,0,0,0,0,0,0,0,0,0,0,0,0,0,0,0,0,0,0,0,0,0,0,0,0,0,0,0,0,0,0,0,0,0,0,0,0,0,0,0,0,0],"sum_hessian":[5.8E3,5.532E3,2.68E2,4.809E3,7.23E2,2.67E2,1E0,4.798E3,1.1E1,7.21E2,2E0,2.66E2,1E0,3.079E3,1.719E3,7.17E2,4E0,2.6E2,6E0,2.819E3,2.6E2,1.714E3,5E0,7.12E2,5E0,2.57E2,3E0,5E0,1E0,2.762E3,5.7E1,1.71E2,8.9E1,1.712E3,2E0,2E0,3E0,7.09E2,3E0,2E0,3E0,2.56E2,1E0,1E0,2E0,2.759E3,3E0,7E0,5E1,1.69E2,2E0,1.4E1,7.5E1,1.681E3,3.1E1,7.05E2,4E0,1E0,2E0,2.53E2,3E0],"tree_param":{"num_deleted":"0","num_feature":"244","num_nodes":"61","size_leaf_vector":"1"}},{"base_weights":[4.0150946E-1,7.40131E-3,8.7938705E1,-1.8621292E0,1.0537722E1,6.770548E1,5.937694E1,-1.9775709E0,2.3855835E1,9.700077E0,8.1688934E1,4.6962948E1,5.6552624E1,-2.0247502E0,1.1219855E1,3.649535E0,8.906127E0,8.873275E0,7.285784E1,5.20403E1,3.485266E1,6.850465E1,1.527688E1,-2.0912116E0,7.7456207E0,8.474028E0,2.3807089E1,4.2652004E1,2.7837881E1,2.7276176E1,1.1975266E1,7.8339996E0,8.4339005E1,-4.2699627E1,3.2904953E1,-2.2118874E0,2.0499924E1,7.5131884E0,5.246876E1,7.219765E1,3.1692483E0,8.151596E0,1.8392496E0,-3.369405E-1,3.6390107E0,9.6216415E1,-3.4435089E0,-1.0170554E1,-2.6393342E0,8.8862976E1,4.2222333E0,-4.5615545E-1,7.0193176E0,3.4851964E0,7.6516304E0,1.400609E0,1.8118467E1,6.1599336E0,1.642405E1,4.222142E0,1.6437944E1,2.1930439E1,-2.4705536E0,2.1829447E1,4.8294463E0,-3.7841785E0,1.43081E1],"categories":[],"categories_nodes":[],"categories_segments":[],"categories_sizes":[],"default_left":[0,0,0,0,0,0,0,0,0,0,0,0,0,0,0,0,0,0,0,0,0,0,0,0,0,0,0,0,0,0,0,0,0,0,0,0,0,0,0,0,0,0,0,0,0,0,0,0,0,0,0,0,0,0,0,0,0,0,0,0,0,0,0,0,0,0,0],"id":12,"left_children":[1,3,5,7,9,11,-1,13,15,17,19,21,-1,23,-1,-1,-1,25,27,29,-1,31,33,35,-1,37,-1,39,-1,41,-1,43,45,47,49,51,53,55,57,59,-1,-1,-1,-1,-1,61,-1,-1,-1,63,65,-1,-1,-1,-1,-1,-1,-1,-1,-1,-1,-1,-1,-1,-1,-1,-1],"loss_changes":[2.0012875E5,1.1373033E5,8.9818266E4,1.4612734E4,5.1118727E4,9.824161E4,0E0,1.3498637E4,1.7382656E3,4.4366273E4,1.837832E4,1.5335184E4,0E0,1.3303793E4,0E0,0E0,0E0,3.646386E4,1.6102891E4,1.1327344E2,0E0,1.27888125E4,1.2647183E4,1.33356E4,0E0,3.5536895E4,0E0,5.98388E3,0E0,6.001797E2,0E0,4.2514838E2,1.4925133E4,5.0538086E1,1.4070054E4,1.2545387E4,7.525967E2,3.4670016E4,9.036098E3,3.067754E2,0E0,0E0,0E0,0E0,0E0,1.5941617E4,0E0,0E0,0E0,1.3025293E3,1.2259295E4,0E0,0E0,0E0,0E0,0E0,0E0,0E0,0E0,0E0,0E0,0E0,0E0,0E0,0E0,0E0,0E0],"parents":[2147483647,0,0,1,1,2,2,3,3,4,4,5,5,7,7,8,8,9,9,10,10,11,11,13,13,17,17,18,18,19,19,21,21,22,22,23,23,25,25,27,27,29,29,31,31,32,32,33,33,34,34,35,35,36,36,37,37,38,38,39,39,45,45,49,49,50,50],"right_children":[2,4,6,8,10,12,-1,14,16,18,20,22,-1,24,-1,-1,-1,26,28,30,-1,32,34,36,-1,38,-1,40,-1,42,-1,44,46,48,50,52,54,56,58,60,-1,-1,-1,-1,-1,62,-1,-1,-1,64,66,-1,-1,-1,-1,-1,-1,-1,-1,-1,-1,-1,-1,-1,-1,-1,-1],"split_conditions":[5.4E3,1.9E3,1E0,1E0,1E0,3E4,5.937694E1,1E0,1.61E3,1E0,4.2E3,5E0,5.6552624E1,1E0,1.1219855E1,3.649535E0,8.906127E0,1E0,3.227E3,2.99E3,3.485266E1,4E0,5E0,1E0,7.7456207E0,1E0,2.3807089E1,2.444E3,2.7837881E1,2.79E3,1.1975266E1,2E0,1E0,1E0,6E0,1E0,4E0,1E0,4E0,2.086E3,3.1692483E0,8.151596E0,1.8392496E0,-3.369405E-1,3.6390107E0,1E0,-3.4435089E0,-1.0170554E1,-2.6393342E0,1E0,1.6E1,-4.5615545E-1,7.0193176E0,3.4851964E0,7.6516304E0,1.400609E0,1.8118467E1,6.1599336E0,1.642405E1,4.222142E0,1.6437944E1,2.1930439E1,-2.4705536E0,2.1829447E1,4.8294463E0,-3.7841785E0,1.43081E1],"split_indices":[0,0,168,152,69,0,0,3,0,116,0,1,0,41,0,0,0,93,0,0,0,1,2,198,0,198,0,0,0,0,0,1,82,238,1,84,1,33,2,0,0,0,0,0,0,99,0,0,0,154,1,0,0,0,0,0,0,0,0,0,0,0,0,0,0,0,0],"split_type":[0,0,0,0,0,0,0,0,0,0,0,0,0,0,0,0,0,0,0,0,0,0,0,0,0,0,0,0,0,0,0,0,0,0,0,0,0,0,0,0,0,0,0,0,0,0,0,0,0,0,0,0,0,0,0,0,0,0,0,0,0,0,0,0,0,0,0],"sum_hessian":[5.8E3,5.775E3,2.5E1,4.905E3,8.7E2,2.4E1,1E0,4.884E3,2.1E1,8.61E2,9E0,2.3E1,1E0,4.881E3,3E0,1.8E1,3E0,8.51E2,1E1,8E0,1E0,1.3E1,1E1,4.874E3,7E0,8.49E2,2E0,8E0,2E0,3E0,5E0,3E0,1E1,2E0,8E0,4.849E3,2.5E1,8.32E2,1.7E1,3E0,5E0,1E0,2E0,2E0,1E0,9E0,1E0,1E0,1E0,2E0,6E0,4.841E3,8E0,2.3E1,2E0,8.28E2,4E0,1.1E1,6E0,1E0,2E0,8E0,1E0,1E0,1E0,5E0,1E0],"tree_param":{"num_deleted":"0","num_feature":"244","num_nodes":"67","size_leaf_vector":"1"}},{"base_weights":[3.8727126E-1,4.4635482E-2,7.6490234E1,-1.2799816E0,1.0124293E1,5.8174145E1,5.3439247E1,-2.4555295E0,1.6489152E0,1.1034946E1,-1.0234678E1,3.939083E1,5.0897366E1,-2.5140624E0,2.8315733E1,1.4720881E0,3.3625328E1,1.0099241E1,7.103302E1,4.761585E1,-1.3638214E1,-2.3055377E0,-1.0998732E1,6.5916877E0,1.101678E1,1.7834283E0,-1.5071936E1,-3.6061723E0,8.716125E0,9.223583E0,6.548169E1,8.814584E0,3.1367395E1,5.1642593E1,-3.2919068E0,-1.2221717E1,1.2877289E1,-4.843054E0,-1.5874219E0,-5.704403E-1,-2.2120588E0,2.0799637E0,3.0397005E0,1.6070887E0,2.944693E1,-1.2664106E1,-4.028458E0,8.843191E0,2.5381565E1,3.6615555E1,2.4126162E1,3.29945E1,8.965574E1,-1.0008196E0,1.9125532E0,-2.729795E-1,-2.3578193E0,2.3492686E-1,8.634899E-1,3.0103678E-1,9.861273E0,1.6649455E0,6.85852E0,-4.1657195E0,-2.141689E0,1.6387358E0,1.5286829E1,1.4246216E1,2.64104E0,9.387792E0,-7.6859317E0,2.0735E1,1.9559418E0],"categories":[],"categories_nodes":[],"categories_segments":[],"categories_sizes":[],"default_left":[0,0,0,0,0,0,0,0,0,0,0,0,0,0,0,0,0,0,0,0,0,0,0,0,0,0,0,0,0,0,0,0,0,0,0,0,0,0,0,0,0,0,0,0,0,0,0,0,0,0,0,0,0,0,0,0,0,0,0,0,0,0,0,0,0,0,0,0,0,0,0,0,0],"id":13,"left_children":[1,3,5,7,9,11,-1,13,15,17,-1,19,-1,21,23,25,27,29,31,33,35,37,39,41,-1,43,45,-1,-1,47,49,-1,-1,51,-1,-1,-1,53,55,-1,-1,-1,57,59,61,63,-1,65,-1,67,-1,69,71,-1,-1,-1,-1,-1,-1,-1,-1,-1,-1,-1,-1,-1,-1,-1,-1,-1,-1,-1,-1],"loss_changes":[1.5126112E5,7.7132305E4,7.527378E4,1.75843E4,3.8020547E4,8.216059E4,0E0,6.6345293E3,8.222735E3,3.644765E4,0E0,1.1117352E4,0E0,6.4112266E3,3.7074932E3,7.5264746E3,4.8998154E3,3.106396E4,1.622057E4,6.268328E3,1.875E4,6.464873E3,1.20859375E1,3.601982E1,0E0,6.9284624E3,7.45459E1,0E0,0E0,2.7707125E4,1.1502453E4,0E0,0E0,1.12193125E4,0E0,0E0,0E0,1.8643926E3,6.272145E3,0E0,0E0,0E0,4.4609222E0,6.8378247E3,6.356836E2,1.1226489E2,0E0,2.7602172E4,0E0,5.5422734E3,0E0,1.6743414E4,5.7049023E3,0E0,0E0,0E0,0E0,0E0,0E0,0E0,0E0,0E0,0E0,0E0,0E0,0E0,0E0,0E0,0E0,0E0,0E0,0E0,0E0],"parents":[2147483647,0,0,1,1,2,2,3,3,4,4,5,5,7,7,8,8,9,9,11,11,13,13,14,14,15,15,16,16,17,17,18,18,19,19,20,20,21,21,22,22,23,23,25,25,26,26,29,29,30,30,33,33,37,37,38,38,42,42,43,43,44,44,45,45,47,47,49,49,51,51,52,52],"right_children":[2,4,6,8,10,12,-1,14,16,18,-1,20,-1,22,24,26,28,30,32,34,36,38,40,42,-1,44,46,-1,-1,48,50,-1,-1,52,-1,-1,-1,54,56,-1,-1,-1,58,60,62,64,-1,66,-1,68,-1,70,72,-1,-1,-1,-1,-1,-1,-1,-1,-1,-1,-1,-1,-1,-1,-1,-1,-1,-1,-1,-1],"split_conditions":[5.4E3,2.1E3,1E0,1.415E3,1E0,3E4,5.3439247E1,1E0,1E0,1E0,-1.0234678E1,8E0,5.0897366E1,1E0,7.5E2,1E0,1.51E3,1E0,4.2E3,1E0,1.6E1,9.8E2,6.66E2,5.25E2,1.101678E1,1E0,1.862E3,-3.6061723E0,8.716125E0,1E0,3.227E3,8.814584E0,3.1367395E1,5E0,-3.2919068E0,-1.2221717E1,1.2877289E1,1E0,1E0,-5.704403E-1,-2.2120588E0,2.0799637E0,6.56E2,1E0,3E0,1.466E3,-4.028458E0,1E0,2.5381565E1,2.444E3,2.4126162E1,5E0,7E0,-1.0008196E0,1.9125532E0,-2.729795E-1,-2.3578193E0,2.3492686E-1,8.634899E-1,3.0103678E-1,9.861273E0,1.6649455E0,6.85852E0,-4.1657195E0,-2.141689E0,1.6387358E0,1.5286829E1,1.4246216E1,2.64104E0,9.387792E0,-7.6859317E0,2.0735E1,1.9559418E0],"split_indices":[0,0,168,0,63,0,0,60,4,69,0,1,0,229,0,97,0,116,0,115,1,0,0,0,0,116,0,0,0,47,0,0,0,2,0,0,0,168,82,0,0,0,0,3,1,0,0,67,0,0,0,1,1,0,0,0,0,0,0,0,0,0,0,0,0,0,0,0,0,0,0,0,0],"split_type":[0,0,0,0,0,0,0,0,0,0,0,0,0,0,0,0,0,0,0,0,0,0,0,0,0,0,0,0,0,0,0,0,0,0,0,0,0,0,0,0,0,0,0,0,0,0,0,0,0,0,0,0,0,0,0,0,0,0,0,0,0,0,0,0,0,0,0,0,0,0,0,0,0],"sum_hessian":[5.8E3,5.775E3,2.5E1,5.105E3,6.7E2,2.4E1,1E0,3.643E3,1.462E3,6.61E2,9E0,2.3E1,1E0,3.637E3,6E0,1.455E3,7E0,6.52E2,9E0,2E1,3E0,3.551E3,8.6E1,4E0,2E0,1.429E3,2.6E1,1E0,6E0,6.43E2,9E0,8E0,1E0,1.9E1,1E0,2E0,1E0,7.82E2,2.769E3,1E0,8.5E1,1E0,3E0,1.421E3,8E0,2E1,6E0,6.42E2,1E0,7E0,2E0,1.4E1,5E0,7.74E2,8E0,2.711E3,5.8E1,2E0,1E0,1.419E3,2E0,2E0,6E0,2E0,1.8E1,6.37E2,5E0,2E0,5E0,1.2E1,2E0,4E0,1E0],"tree_param":{"num_deleted":"0","num_feature":"244","num_nodes":"73","size_leaf_vector":"1"}},{"base_weights":[3.550713E-1,5.932803E-2,6.6041916E1,-1.2885895E0,6.764006E0,4.9445465E1,4.8095325E1,-1.3661808E0,5.9697666E0,6.19243E0,6.0844624E1,3.241918E1,4.580763E1,-1.4530277E0,2.3148827E1,5.8836775E0,2.0503492E1,3.623774E1,2.8230658E1,3.909748E1,-1.0746681E1,-1.5111499E0,6.6855044E0,2.6455757E1,2.9290488E0,6.3926225E0,-9.675788E0,1.7707733E1,8.510291E0,4.3071323E1,-4.0379367E0,-1.05921545E1,1.15895605E1,-1.5670048E0,3.1974289E1,2.3058536E0,6.1224065E0,6.8030286E0,-1.1835E1,6.4549804E0,4.1874185E-1,-1.5437195E0,4.914346E1,-3.5051832E-1,1.7118453E0,3.1153429E0,7.739499E0,1.2765903E0,1.4268245E1,1.3031219E1,4.196632E0],"categories":[],"categories_nodes":[],"categories_segments":[],"categories_sizes":[],"default_left":[0,0,0,0,0,0,0,0,0,0,0,0,0,0,0,0,0,0,0,0,0,0,0,0,0,0,0,0,0,0,0,0,0,0,0,0,0,0,0,0,0,0,0,0,0,0,0,0,0,0,0],"id":14,"left_children":[1,3,5,7,9,11,-1,13,-1,15,17,19,-1,21,23,25,-1,27,-1,29,31,33,-1,35,-1,37,-1,39,-1,41,-1,-1,-1,43,45,-1,-1,47,-1,-1,-1,-1,49,-1,-1,-1,-1,-1,-1,-1,-1],"loss_changes":[1.12688875E5,5.220847E4,6.337946E4,1.1661701E4,2.9514355E4,6.901967E4,0E0,1.0250962E4,0E0,2.788832E4,1.4646387E4,7.338756E3,0E0,9.747246E3,9.060254E1,2.6710824E4,0E0,2.9944824E2,0E0,5.8171523E3,1.4668461E4,8.982792E3,0E0,3.2949023E2,0E0,2.591264E4,0E0,8.4223425E2,0E0,6.547383E3,0E0,0E0,0E0,8.977359E3,2.7917383E2,0E0,0E0,2.5110316E4,0E0,0E0,0E0,0E0,6.7493867E3,0E0,0E0,0E0,0E0,0E0,0E0,0E0,0E0],"parents":[2147483647,0,0,1,1,2,2,3,3,4,4,5,5,7,7,9,9,10,10,11,11,13,13,14,14,15,15,17,17,19,19,20,20,21,21,23,23,25,25,27,27,29,29,33,33,34,34,37,37,42,42],"right_children":[2,4,6,8,10,12,-1,14,-1,16,18,20,-1,22,24,26,-1,28,-1,30,32,34,-1,36,-1,38,-1,40,-1,42,-1,-1,-1,44,46,-1,-1,48,-1,-1,-1,-1,50,-1,-1,-1,-1,-1,-1,-1,-1],"split_conditions":[5.4E3,1.85E3,1E0,1E0,1E0,3E4,4.8095325E1,1E0,5.9697666E0,1E0,4.2E3,8E0,4.580763E1,1E0,1.447E3,1E0,2.0503492E1,2.99E3,2.8230658E1,1E0,1.6E1,1E0,6.6855044E0,8.7E2,2.9290488E0,1E0,-9.675788E0,2.79E3,8.510291E0,2E0,-4.0379367E0,-1.05921545E1,1.15895605E1,4E0,1.103E3,2.3058536E0,6.1224065E0,1E0,-1.1835E1,6.4549804E0,4.1874185E-1,-1.5437195E0,5E0,-3.5051832E-1,1.7118453E0,3.1153429E0,7.739499E0,1.2765903E0,1.4268245E1,1.3031219E1,4.196632E0],"split_indices":[0,0,168,100,69,0,0,116,0,93,0,1,0,210,0,206,0,0,0,82,1,41,0,0,0,157,0,0,0,1,0,0,0,2,0,0,0,27,0,0,0,0,1,0,0,0,0,0,0,0,0],"split_type":[0,0,0,0,0,0,0,0,0,0,0,0,0,0,0,0,0,0,0,0,0,0,0,0,0,0,0,0,0,0,0,0,0,0,0,0,0,0,0,0,0,0,0,0,0,0,0,0,0,0,0],"sum_hessian":[5.8E3,5.775E3,2.5E1,4.809E3,9.66E2,2.4E1,1E0,4.798E3,1.1E1,9.57E2,9E0,2.3E1,1E0,4.782E3,1.6E1,9.55E2,2E0,8E0,1E0,2E1,3E0,4.775E3,7E0,1E1,6E0,9.47E2,8E0,3E0,5E0,1.9E1,1E0,2E0,1E0,4.768E3,7E0,3E0,7E0,9.42E2,5E0,1E0,2E0,2E0,1.7E1,4.683E3,8.5E1,3E0,4E0,9.37E2,5E0,1E1,7E0],"tree_param":{"num_deleted":"0","num_feature":"244","num_nodes":"51","size_leaf_vector":"1"}},{"base_weights":[3.1869268E-1,-1.1293429E-1,3.5658222E1,-2.5077924E-1,4.3659115E1,2.9901705E1,4.3285793E1,-4.5872003E-1,2.7188728E1,5.738896E0,5.5435474E1,2.4278662E1,4.1226868E1,-5.3672075E-1,1.466048E1,1.7551151E1,1.2329445E1,1.2116801E1,1.4247254E0,3.4943775E1,-7.2879825E0,-6.2076783E-1,1.3504412E1,6.408153E0,1.5191476E1,3.977402E1,-1.1119625E1,-1.3852336E1,1.0430603E1,-7.8499126E-1,3.368234E1,-6.9515023E0,1.6899391E1,4.4370102E1,-4.6048846E0,-7.9398117E0,-1.0845273E1,-1.7877902E-1,9.277773E0,4.7866898E0,2.073913E1,-2.137909E-1,-1.8716599E0,2.5811021E0,4.9568996E0,-9.186122E-1,1.0365881E1,-4.008751E0,4.5395226E0],"categories":[],"categories_nodes":[],"categories_segments":[],"categories_sizes":[],"default_left":[0,0,0,0,0,0,0,0,0,0,0,0,0,0,0,0,0,0,0,0,0,0,0,0,0,0,0,0,0,0,0,0,0,0,0,0,0,0,0,0,0,0,0,0,0,0,0,0,0],"id":15,"left_children":[1,3,5,7,9,11,-1,13,15,-1,17,19,-1,21,-1,23,-1,-1,-1,25,27,29,-1,-1,31,33,-1,35,-1,37,39,41,43,45,-1,47,-1,-1,-1,-1,-1,-1,-1,-1,-1,-1,-1,-1,-1],"loss_changes":[8.848955E4,3.459644E4,6.63711E4,3.2621074E4,1.5814297E3,6.3371836E4,0E0,3.2678486E4,1.3198164E4,0E0,1.8070352E3,2.3147676E4,0E0,3.2463686E4,0E0,7.0993066E2,0E0,0E0,0E0,2.4515672E4,7.7458926E3,3.1922598E4,0E0,0E0,1.3276621E3,1.5164305E4,0E0,3.6275642E3,0E0,2.8995926E4,1.5947111E4,3.2470688E1,6.249082E2,1.7038672E4,0E0,6.388283E3,0E0,0E0,0E0,0E0,0E0,0E0,0E0,0E0,0E0,0E0,0E0,0E0,0E0],"parents":[2147483647,0,0,1,1,2,2,3,3,4,4,5,5,7,7,8,8,10,10,11,11,13,13,15,15,19,19,20,20,21,21,24,24,25,25,27,27,29,29,30,30,31,31,32,32,33,33,35,35],"right_children":[2,4,6,8,10,12,-1,14,16,-1,18,20,-1,22,-1,24,-1,-1,-1,26,28,30,-1,-1,32,34,-1,36,-1,38,40,42,44,46,-1,48,-1,-1,-1,-1,-1,-1,-1,-1,-1,-1,-1,-1,-1],"split_conditions":[4.2E3,1E0,1E0,1E0,2.02371E3,3E4,4.3285793E1,1E0,4E0,5.738896E0,3.5E3,6E0,4.1226868E1,1E0,1.466048E1,2E0,1.2329445E1,1.2116801E1,1.4247254E0,1E0,1.6E1,1E0,1.3504412E1,6.408153E0,1.27E3,1E0,-1.1119625E1,1.2E1,1.0430603E1,1E0,3.227E3,1.205E3,2.4E3,4E0,-4.6048846E0,9E0,-1.0845273E1,-1.7877902E-1,9.277773E0,4.7866898E0,2.073913E1,-2.137909E-1,-1.8716599E0,2.5811021E0,4.9568996E0,-9.186122E-1,1.0365881E1,-4.008751E0,4.5395226E0],"split_indices":[0,84,168,198,0,0,0,87,2,0,0,1,0,3,0,1,0,0,0,12,1,116,0,0,0,138,0,1,0,33,0,0,0,1,0,1,0,0,0,0,0,0,0,0,0,0,0,0,0],"split_type":[0,0,0,0,0,0,0,0,0,0,0,0,0,0,0,0,0,0,0,0,0,0,0,0,0,0,0,0,0,0,0,0,0,0,0,0,0,0,0,0,0,0,0,0,0,0,0,0,0],"sum_hessian":[5.8E3,5.731E3,6.9E1,5.714E3,1.7E1,6.8E1,1E0,5.672E3,4.2E1,9E0,8E0,6.7E1,1E0,5.667E3,5E0,3.4E1,8E0,7E0,1E0,5E1,1.7E1,5.661E3,6E0,3E0,3.1E1,4.8E1,2E0,1.6E1,1E0,5.635E3,2.6E1,2E0,2.9E1,4.5E1,3E0,1.5E1,1E0,5.623E3,1.2E1,2.4E1,2E0,1E0,1E0,2.1E1,8E0,6E0,3.9E1,1.1E1,4E0],"tree_param":{"num_deleted":"0","num_feature":"244","num_nodes":"49","size_leaf_vector":"1"}},{"base_weights":[2.8677765E-1,2.2285436E-1,3.7104176E1,-4.3253356E-1,1.3752849E1,-5.1054657E-1,1.2245221E1,1.2345285E1,3.8957214E1,-6.7319906E-1,2.744097E1,1.0876744E1,6.533729E1,-7.2879446E-1,7.584152E1,3.7928064E0,3.275236E1,1.0084764E1,2.1679163E1,7.1217003E0,2.4371002E1,-7.962427E-1,1.2217065E1,3.646312E0,1.7793531E1,5.240236E0,-4.8917696E-1,2.5876297E1,3.8618076E1,9.135945E0,6.8525154E1,-1.7371061E-1,1.1189368E1,-7.524058E-2,1.6285012E0,5.9956527E0,2.945394E0,1.1442515E1,5.2125916E0,2.4535954E0,-2.0864046E0,4.491913E-1,1.7973913E1],"categories":[],"categories_nodes":[],"categories_segments":[],"categories_sizes":[],"default_left":[0,0,0,0,0,0,0,0,0,0,0,0,0,0,0,0,0,0,0,0,0,0,0,0,0,0,0,0,0,0,0,0,0,0,0,0,0,0,0,0,0,0,0],"id":16,"left_children":[1,3,-1,5,7,9,-1,11,-1,13,15,17,19,21,23,25,27,29,-1,-1,-1,31,-1,-1,-1,33,-1,35,37,39,41,-1,-1,-1,-1,-1,-1,-1,-1,-1,-1,-1,-1],"loss_changes":[6.864696E4,5.143684E4,0E0,2.6645965E4,6.588591E4,2.5146332E4,0E0,2.006754E4,0E0,2.3434533E4,3.895125E3,1.9064713E4,7.4223477E3,2.2950348E4,1.4027637E3,7.602747E1,4.9365234E1,1.3790781E4,0E0,0E0,0E0,2.2566473E4,0E0,0E0,0E0,1.0086577E2,0E0,2.4452344E2,1.3103457E3,1.5878865E4,5.456918E3,0E0,0E0,0E0,0E0,0E0,0E0,0E0,0E0,0E0,0E0,0E0,0E0],"parents":[2147483647,0,0,1,1,3,3,4,4,5,5,7,7,9,9,10,10,11,11,12,12,13,13,14,14,15,15,16,16,17,17,21,21,25,25,27,27,28,28,29,29,30,30],"right_children":[2,4,-1,6,8,10,-1,12,-1,14,16,18,20,22,24,26,28,30,-1,-1,-1,32,-1,-1,-1,34,-1,36,38,40,42,-1,-1,-1,-1,-1,-1,-1,-1,-1,-1,-1,-1],"split_conditions":[3E4,3E3,3.7104176E1,1E0,1E0,1E0,1.2245221E1,1E0,3.8957214E1,1E0,6.93E2,1E0,4.2E3,1E0,6.15E2,6.33E2,2.225E3,1E0,2.1679163E1,7.1217003E0,2.4371002E1,1E0,1.2217065E1,3.646312E0,1.7793531E1,5.95E2,-4.8917696E-1,2.02371E3,4E0,6E0,3.227E3,-1.7371061E-1,1.1189368E1,-7.524058E-2,1.6285012E0,5.9956527E0,2.945394E0,1.1442515E1,5.2125916E0,2.4535954E0,-2.0864046E0,4.491913E-1,1.7973913E1],"split_indices":[0,0,0,205,168,168,0,69,0,93,0,47,0,87,0,0,0,116,0,0,0,3,0,0,0,0,0,0,1,2,0,0,0,0,0,0,0,0,0,0,0,0,0],"split_type":[0,0,0,0,0,0,0,0,0,0,0,0,0,0,0,0,0,0,0,0,0,0,0,0,0,0,0,0,0,0,0,0,0,0,0,0,0,0,0,0,0,0,0],"sum_hessian":[5.8E3,5.799E3,1E0,5.532E3,2.67E2,5.526E3,6E0,2.66E2,1E0,5.495E3,3.1E1,2.6E2,6E0,5.492E3,3E0,6E0,2.5E1,2.59E2,1E0,5E0,1E0,5.487E3,5E0,1E0,2E0,5E0,1E0,1.4E1,1.1E1,2.56E2,3E0,5.481E3,6E0,2E0,3E0,9E0,5E0,3E0,8E0,2.21E2,3.5E1,1E0,2E0],"tree_param":{"num_deleted":"0","num_feature":"244","num_nodes":"43","size_leaf_vector":"1"}},{"base_weights":[2.6934737E-1,2.1181835E-1,3.3393764E1,-2.1115622E-1,1.5122992E1,-3.2423222E-1,3.721611E1,1.30129795E1,3.50615E1,-4.0004098E-1,1.0590602E1,4.894214E0,1.0385489E1,4.1737343E1,8.579709E0,-4.3741667E-1,2.0953932E1,6.1554146E1,-1.1574521E1,6.103117E0,6.2460308E1,-3.5390824E-1,-8.592836E0,7.124426E1,-1.0317792E1,4.681994E0,1.9511246E1,6.216914E0,2.1933899E1,-5.0404575E-2,-6.7682786E0,1.5100314E1,3.1274414E-1,-1.7642567E0,2.2913775E0],"categories":[],"categories_nodes":[],"categories_segments":[],"categories_sizes":[],"default_left":[0,0,0,0,0,0,0,0,0,0,0,0,0,0,0,0,0,0,0,0,0,0,0,0,0,0,0,0,0,0,0,0,0,0,0],"id":17,"left_children":[1,3,-1,5,7,9,11,13,-1,15,-1,-1,-1,17,19,21,-1,23,-1,25,27,29,-1,31,-1,33,-1,-1,-1,-1,-1,-1,-1,-1,-1],"loss_changes":[5.5596547E4,3.6584066E4,0E0,2.3885482E4,5.1797336E4,2.2739895E4,1.9167207E3,1.9889424E4,0E0,2.2129018E4,0E0,0E0,0E0,4.501526E4,1.8166992E4,1.9932691E4,0E0,2.3410094E4,0E0,1.6958701E4,5.4783105E3,1.912191E4,0E0,4.925E3,0E0,1.2268339E4,0E0,0E0,0E0,0E0,0E0,0E0,0E0,0E0,0E0],"parents":[2147483647,0,0,1,1,3,3,4,4,5,5,6,6,7,7,9,9,13,13,14,14,15,15,17,17,19,19,20,20,21,21,23,23,25,25],"right_children":[2,4,-1,6,8,10,12,14,-1,16,-1,-1,-1,18,20,22,-1,24,-1,26,28,30,-1,32,-1,34,-1,-1,-1,-1,-1,-1,-1,-1,-1],"split_conditions":[3E4,3.5E3,3.3393764E1,1E0,1E0,1E0,2.086E3,3.596E3,3.50615E1,9E0,1.0590602E1,4.894214E0,1.0385489E1,1E0,1E0,1E0,2.0953932E1,1E0,-1.1574521E1,1E0,4.2E3,7E0,-8.592836E0,1E0,-1.0317792E1,3.96E3,1.9511246E1,6.216914E0,2.1933899E1,-5.0404575E-2,-6.7682786E0,1.5100314E1,3.1274414E-1,-1.7642567E0,2.2913775E0],"split_indices":[0,0,0,84,168,149,0,0,0,1,0,0,0,238,69,63,0,201,0,47,0,2,0,112,0,0,0,0,0,0,0,0,0,0,0],"split_type":[0,0,0,0,0,0,0,0,0,0,0,0,0,0,0,0,0,0,0,0,0,0,0,0,0,0,0,0,0,0,0,0,0,0,0],"sum_hessian":[5.8E3,5.799E3,1E0,5.64E3,1.59E2,5.624E3,1.6E1,1.58E2,1E0,5.617E3,7E0,1E1,6E0,2E1,1.38E2,5.616E3,1E0,1.7E1,3E0,1.33E2,5E0,5.606E3,1E1,1.6E1,1E0,1.32E2,1E0,4E0,1E0,5.59E3,1.6E1,1.5E1,1E0,4.4E1,8.8E1],"tree_param":{"num_deleted":"0","num_feature":"244","num_nodes":"35","size_leaf_vector":"1"}},{"base_weights":[2.3988406E-1,1.8810752E-1,3.0054382E1,7.7597722E-3,3.170501E1,-7.943652E-2,5.5812523E1,2.0694403E1,2.698259E1,-2.3628415E-1,2.988634E1,2.5421041E1,1.50083E1,3.2294617E0,4.951362E0,-3.0639726E-1,5.7139973E1,1.5702168E1,4.985408E1,6.3168716E0,7.677765E-2,4.49307E0,-4.352188E-1,-4.6930462E-1,2.1231018E1,3.4698033E0,1.391731E1,1.7007448E1,8.645895E0,2.4535615E0,1.0431151E1,-2.924398E-1,1.3917869E0,-1.1997198E-1,5.380365E0,2.9195008E0,8.933803E0,2.4287694E0,4.861177E0,-4.902018E-1,3.3721669E0,7.06134E-1,-7.93866E-1],"categories":[],"categories_nodes":[],"categories_segments":[],"categories_sizes":[],"default_left":[0,0,0,0,0,0,0,0,0,0,0,0,0,0,0,0,0,0,0,0,0,0,0,0,0,0,0,0,0,0,0,0,0,0,0,0,0,0,0,0,0,0,0],"id":18,"left_children":[1,3,-1,5,7,9,11,13,-1,15,17,19,-1,21,-1,23,25,27,29,-1,-1,31,-1,33,35,-1,-1,37,39,-1,-1,41,-1,-1,-1,-1,-1,-1,-1,-1,-1,-1,-1],"loss_changes":[4.5034707E4,3.2966965E4,0E0,2.8071336E4,3.470866E4,2.7079416E4,3.3519395E3,2.1194902E3,0E0,2.307233E4,7.713955E3,7.594343E2,0E0,5.7590874E1,0E0,2.0096717E4,2.2595723E3,2.7953125E1,3.9830273E2,0E0,0E0,7.2837585E1,0E0,2.032403E4,6.033422E3,0E0,0E0,2.372832E2,4.9712808E2,0E0,0E0,5.618586E1,0E0,0E0,0E0,0E0,0E0,0E0,0E0,0E0,0E0,0E0,0E0],"parents":[2147483647,0,0,1,1,3,3,4,4,5,5,6,6,7,7,9,9,10,10,11,11,13,13,15,15,16,16,17,17,18,18,21,21,23,23,24,24,27,27,28,28,31,31],"right_children":[2,4,-1,6,8,10,12,14,-1,16,18,20,-1,22,-1,24,26,28,30,-1,-1,32,-1,34,36,-1,-1,38,40,-1,-1,42,-1,-1,-1,-1,-1,-1,-1,-1,-1,-1,-1],"split_conditions":[3E4,1E0,3.0054382E1,1E0,2.5855E3,1E0,2.4E3,6.93E2,2.698259E1,1E0,1.61E3,1.719E3,1.50083E1,6.33E2,4.951362E0,1E0,1.569E3,1.322E3,3E0,6.3168716E0,7.677765E-2,5.95E2,-4.352188E-1,1E0,4E0,3.4698033E0,1.391731E1,1.291E3,1.352E3,2.4535615E0,1.0431151E1,5E2,1.3917869E0,-1.1997198E-1,5.380365E0,2.9195008E0,8.933803E0,2.4287694E0,4.861177E0,-4.902018E-1,3.3721669E0,7.06134E-1,-7.93866E-1],"split_indices":[0,168,0,67,0,152,0,0,0,47,0,0,0,0,0,198,0,0,1,0,0,0,0,116,2,0,0,0,0,0,0,0,0,0,0,0,0,0,0,0,0,0,0],"split_type":[0,0,0,0,0,0,0,0,0,0,0,0,0,0,0,0,0,0,0,0,0,0,0,0,0,0,0,0,0,0,0,0,0,0,0,0,0,0,0,0,0,0,0],"sum_hessian":[5.8E3,5.799E3,1E0,5.767E3,3.2E1,5.759E3,8E0,3E1,2E0,5.73E3,2.9E1,4E0,4E0,6E0,2.4E1,5.724E3,6E0,1.8E1,1.1E1,3E0,1E0,5E0,1E0,5.682E3,4.2E1,2E0,4E0,1.4E1,4E0,1E0,1E1,2E0,3E0,5.656E3,2.6E1,3.4E1,8E0,1E1,4E0,2E0,2E0,1E0,1E0],"tree_param":{"num_deleted":"0","num_feature":"244","num_nodes":"43","size_leaf_vector":"1"}},{"base_weights":[2.1635331E-1,1.6975449E-1,2.704895E1,-3.654877E-1,8.164101E0,-4.2220822E-1,1.0209282E1,7.39163E0,2.8857092E1,-5.1455104E-1,2.9021961E1,2.0708832E1,3.4317744E0,-4.3464154E-1,-3.1317154E1,2.082825E1,1.2063306E1,5.3409008E1,1.3299971E1,2.7385843E0,1.9752502E1,-5.015217E-1,3.5683983E1,-4.4382014E0,-9.716954E0,1.3524438E1,2.7243402E1,6.0322968E1,-4.338643E0,1.7465662E1,-2.0646631E1,1.8398999E0,1.2857566E1,-7.207751E-2,-3.4539316E0,3.3595295E0,9.095054E0,3.9152215E0,2.1316491E-1,6.006831E0,1.0498886E0,1.3306276E1,-2.038643E0,3.8978791E0,-1.0598203E1,-4.6739106E0,-1.5861817E-1,-1.472046E0,1.5171894E0],"categories":[],"categories_nodes":[],"categories_segments":[],"categories_sizes":[],"default_left":[0,0,0,0,0,0,0,0,0,0,0,0,0,0,0,0,0,0,0,0,0,0,0,0,0,0,0,0,0,0,0,0,0,0,0,0,0,0,0,0,0,0,0,0,0,0,0,0,0],"id":19,"left_children":[1,3,-1,5,7,9,-1,11,-1,13,15,17,19,21,23,25,-1,27,29,31,-1,33,35,-1,-1,37,39,41,-1,43,45,47,-1,-1,-1,-1,-1,-1,-1,-1,-1,-1,-1,-1,-1,-1,-1,-1,-1],"loss_changes":[3.6477883E4,2.482067E4,0E0,1.5876441E4,3.7208E4,1.4784311E4,0E0,1.907145E4,0E0,1.331744E4,3.10283E3,1.9398156E4,1.8298668E4,1.3069488E4,1.1280703E3,3.3437402E2,0E0,9.097406E3,1.011797E4,1.5369452E4,0E0,1.2758981E4,1.0853359E3,0E0,0E0,6.5769385E2,2.719956E2,6.8072812E3,0E0,9.8730625E3,4.1394287E2,1.4699268E4,0E0,0E0,0E0,0E0,0E0,0E0,0E0,0E0,0E0,0E0,0E0,0E0,0E0,0E0,0E0,0E0,0E0],"parents":[2147483647,0,0,1,1,3,3,4,4,5,5,7,7,9,9,10,10,11,11,12,12,13,13,14,14,15,15,17,17,18,18,19,19,21,21,22,22,25,25,26,26,27,27,29,29,30,30,31,31],"right_children":[2,4,-1,6,8,10,-1,12,-1,14,16,18,20,22,24,26,-1,28,30,32,-1,34,36,-1,-1,38,40,42,-1,44,46,48,-1,-1,-1,-1,-1,-1,-1,-1,-1,-1,-1,-1,-1,-1,-1,-1,-1],"split_conditions":[3E4,2.658E3,2.704895E1,1E0,1E0,1E0,1.0209282E1,4E0,2.8857092E1,1E0,1.991E3,2.79E3,1E0,1E0,1.335E3,1.545E3,1.2063306E1,1E0,1E0,1E0,1.9752502E1,1E0,1.185E3,-4.4382014E0,-9.716954E0,1.25E3,1.862E3,1E0,-4.338643E0,1E0,3.758E3,3.227E3,1.2857566E1,-7.207751E-2,-3.4539316E0,3.3595295E0,9.095054E0,3.9152215E0,2.1316491E-1,6.006831E0,1.0498886E0,1.3306276E1,-2.038643E0,3.8978791E0,-1.0598203E1,-4.6739106E0,-1.5861817E-1,-1.472046E0,1.5171894E0],"split_indices":[0,0,0,87,168,78,0,2,0,208,0,0,69,41,0,0,0,80,238,109,0,206,0,0,0,0,0,115,0,11,0,0,0,0,0,0,0,0,0,0,0,0,0,0,0,0,0,0,0],"split_type":[0,0,0,0,0,0,0,0,0,0,0,0,0,0,0,0,0,0,0,0,0,0,0,0,0,0,0,0,0,0,0,0,0,0,0,0,0,0,0,0,0,0,0,0,0,0,0,0,0],"sum_hessian":[5.8E3,5.799E3,1E0,5.436E3,3.63E2,5.431E3,5E0,3.62E2,1E0,5.415E3,1.6E1,8.2E1,2.8E2,5.402E3,1.3E1,1.4E1,2E0,1.4E1,6.8E1,2.79E2,1E0,5.393E3,9E0,1E1,3E0,8E0,6E0,1.3E1,1E0,6.1E1,7E0,2.76E2,3E0,5.349E3,4.4E1,4E0,5E0,5E0,3E0,5E0,1E0,1.2E1,1E0,6E1,1E0,6E0,1E0,1.06E2,1.7E2],"tree_param":{"num_deleted":"0","num_feature":"244","num_nodes":"49","size_leaf_vector":"1"}},{"base_weights":[1.9242206E-1,1.5048273E-1,2.4344055E1,5.13301E-3,2.555129E1,-6.7889415E-2,4.6738914E1,1.823371E1,2.5971388E1,-1.535424E-1,3.7809128E1,2.1673225E1,1.2491365E1,2.769469E0,2.1695864E1,-2.8330353E-1,2.4588373E1,1.6242464E1,1.6454702E1,5.380152E0,7.630768E-2,3.8718631E0,-3.8448945E-1,1.679016E1,2.6020004E1,-3.4367242E-1,4.9026817E1,1.6462189E1,9.787391E0,2.490163E1,8.974017E0,-2.1514384E-1,1.1938305E0,2.0236187E1,8.248418E0,7.900249E0,3.4274461E0,-8.058927E-2,9.60612E0,4.300063E0,1.1147471E1,2.425411E0,4.723315E0,6.5326104E0,1.6173707E-1,2.6134832E0,5.274231E-1,6.4272845E-1,-7.072716E-1,2.11563E0,4.572837E0,9.0369624E-1,2.6898103E0],"categories":[],"categories_nodes":[],"categories_segments":[],"categories_sizes":[],"default_left":[0,0,0,0,0,0,0,0,0,0,0,0,0,0,0,0,0,0,0,0,0,0,0,0,0,0,0,0,0,0,0,0,0,0,0,0,0,0,0,0,0,0,0,0,0,0,0,0,0,0,0,0,0],"id":20,"left_children":[1,3,-1,5,7,9,11,13,-1,15,17,19,-1,21,23,25,27,29,-1,-1,-1,31,-1,33,35,37,39,41,-1,43,45,47,-1,49,51,-1,-1,-1,-1,-1,-1,-1,-1,-1,-1,-1,-1,-1,-1,-1,-1,-1,-1],"loss_changes":[2.9548203E4,2.1413469E4,0E0,1.968713E4,2.2819967E4,1.8692855E4,2.1921797E3,1.6531807E3,0E0,1.8461145E4,1.1130002E4,5.4625195E2,0E0,4.364983E1,1.1465625E2,1.7041156E4,5.1302246E3,4.059192E2,0E0,0E0,0E0,5.2714035E1,0E0,2.7460938E2,7.600669E2,1.6400422E4,9.465234E1,4.5796533E2,0E0,7.215679E2,1.4711597E2,4.5527786E1,0E0,1.1952148E1,5.5618896E1,0E0,0E0,0E0,0E0,0E0,0E0,0E0,0E0,0E0,0E0,0E0,0E0,0E0,0E0,0E0,0E0,0E0,0E0],"parents":[2147483647,0,0,1,1,3,3,4,4,5,5,6,6,7,7,9,9,10,10,11,11,13,13,14,14,15,15,16,16,17,17,21,21,23,23,24,24,25,25,26,26,27,27,29,29,30,30,31,31,33,33,34,34],"right_children":[2,4,-1,6,8,10,12,14,-1,16,18,20,-1,22,24,26,28,30,-1,-1,-1,32,-1,34,36,38,40,42,-1,44,46,48,-1,50,52,-1,-1,-1,-1,-1,-1,-1,-1,-1,-1,-1,-1,-1,-1,-1,-1,-1,-1],"split_conditions":[3E4,1E0,2.4344055E1,1E0,2.658E3,1E0,2.4E3,6.93E2,2.5971388E1,1E0,3E0,1.719E3,1.2491365E1,6.33E2,2.225E3,1E0,1.991E3,1.246E3,1.6454702E1,5.380152E0,7.630768E-2,5.95E2,-3.8448945E-1,2.02371E3,4E0,1E0,1.847E3,1.352E3,9.787391E0,4E0,3E0,5E2,1.1938305E0,1.291E3,4E0,7.900249E0,3.4274461E0,-8.058927E-2,9.60612E0,4.300063E0,1.1147471E1,2.425411E0,4.723315E0,6.5326104E0,1.6173707E-1,2.6134832E0,5.274231E-1,6.4272845E-1,-7.072716E-1,2.11563E0,4.572837E0,9.0369624E-1,2.6898103E0],"split_indices":[0,168,0,67,0,33,0,0,0,152,1,0,0,0,0,205,0,0,0,0,0,0,0,0,1,47,0,0,0,2,2,0,0,0,1,0,0,0,0,0,0,0,0,0,0,0,0,0,0,0,0,0,0],"split_type":[0,0,0,0,0,0,0,0,0,0,0,0,0,0,0,0,0,0,0,0,0,0,0,0,0,0,0,0,0,0,0,0,0,0,0,0,0,0,0,0,0,0,0,0,0,0,0,0,0,0,0,0,0],"sum_hessian":[5.8E3,5.799E3,1E0,5.767E3,3.2E1,5.759E3,8E0,3.1E1,1E0,5.747E3,1.2E1,4E0,4E0,6E0,2.5E1,5.718E3,2.9E1,9E0,3E0,3E0,1E0,5E0,1E0,1.4E1,1.1E1,5.712E3,6E0,2.3E1,6E0,3E0,6E0,2E0,3E0,9E0,5E0,3E0,8E0,5.706E3,6E0,2E0,4E0,1.6E1,7E0,2E0,1E0,3E0,3E0,1E0,1E0,3E0,6E0,4E0,1E0],"tree_param":{"num_deleted":"0","num_feature":"244","num_nodes":"53","size_leaf_vector":"1"}},{"base_weights":[1.8131436E-1,4.4883963E-2,3.048288E1,2.5403462E-3,1.6305456E1,2.2352497E1,2.3374243E1,-4.1077036E-2,6.2930885E1,1.4154834E1,2.1909643E1,-9.822819E-2,4.7032845E1,3.3139856E0,1.4572246E1,9.284596E0,1.2617029E1,-1.8173791E-1,3.1925951E1,1.9071206E0,1.0338624E1,4.259972E0,8.272421E0,-7.678838E-2,-2.522212E1,1.0657526E1,1.0942043E1,-7.220978E0,2.0370235E1,-3.332646E-2,5.6865897E0,-9.148459E0,6.374778E-1,1.1594582E0,3.6891134E0,4.598874E0,-5.7959733E0,1.0480778E1,7.462987E-1],"categories":[],"categories_nodes":[],"categories_segments":[],"categories_sizes":[],"default_left":[0,0,0,0,0,0,0,0,0,0,0,0,0,0,0,0,0,0,0,0,0,0,0,0,0,0,0,0,0,0,0,0,0,0,0,0,0,0,0],"id":21,"left_children":[1,3,5,7,-1,9,-1,11,13,15,-1,17,19,-1,-1,21,-1,23,25,-1,-1,27,-1,29,31,33,-1,35,37,-1,-1,-1,-1,-1,-1,-1,-1,-1,-1],"loss_changes":[2.3980285E4,1.9928488E4,1.5649262E4,1.5850885E4,0E0,1.6319395E4,0E0,1.5530507E4,6.3421387E2,5.1335327E3,0E0,1.5423318E4,7.3030664E2,0E0,0E0,3.5308792E3,0E0,1.5111556E4,6.685706E3,0E0,0E0,4.0312766E3,0E0,1.4676584E4,1.4137036E4,2.3373102E2,0E0,9.213255E3,4.601453E3,0E0,0E0,0E0,0E0,0E0,0E0,0E0,0E0,0E0,0E0],"parents":[2147483647,0,0,1,1,2,2,3,3,5,5,7,7,8,8,9,9,11,11,12,12,15,15,17,17,18,18,21,21,23,23,24,24,25,25,27,27,28,28],"right_children":[2,4,6,8,-1,10,-1,12,14,16,-1,18,20,-1,-1,22,-1,24,26,-1,-1,28,-1,30,32,34,-1,36,38,-1,-1,-1,-1,-1,-1,-1,-1,-1,-1],"split_conditions":[5.4E3,1E1,1E0,1E0,1.6305456E1,3E4,2.3374243E1,1E0,6.15E2,1E0,2.1909643E1,1E0,1.205E3,3.3139856E0,1.4572246E1,1E0,1.2617029E1,7E0,2.4E3,1.9071206E0,1.0338624E1,5E0,8.272421E0,1E0,3.227E3,1.6E3,1.0942043E1,4E0,6E0,-3.332646E-2,5.6865897E0,-9.148459E0,6.374778E-1,1.1594582E0,3.6891134E0,4.598874E0,-5.7959733E0,1.0480778E1,7.462987E-1],"split_indices":[0,2,168,93,0,0,0,3,0,122,0,109,0,0,0,152,0,2,0,0,0,2,0,84,0,0,0,2,1,0,0,0,0,0,0,0,0,0,0],"split_type":[0,0,0,0,0,0,0,0,0,0,0,0,0,0,0,0,0,0,0,0,0,0,0,0,0,0,0,0,0,0,0,0,0,0,0,0,0,0,0],"sum_hessian":[5.8E3,5.775E3,2.5E1,5.773E3,2E0,2.4E1,1E0,5.77E3,3E0,2.3E1,1E0,5.764E3,6E0,1E0,2E0,2.2E1,1E0,5.75E3,1.4E1,1E0,5E0,2E1,2E0,5.727E3,2.3E1,8E0,6E0,1.2E1,8E0,5.71E3,1.7E1,1.3E1,1E1,6E0,2E0,5E0,7E0,2E0,6E0],"tree_param":{"num_deleted":"0","num_feature":"244","num_nodes":"39","size_leaf_vector":"1"}},{"base_weights":[1.6842102E-1,1.3445233E-1,1.9718678E1,-9.991894E-1,2.4294453E0,-8.0088985E-1,-9.071816E0,2.6497285E0,-4.458954E1,-6.542083E-1,-1.1544709E1,-8.261272E0,-3.330237E0,2.8103843E0,-5.912217E1,-1.4852763E0,-1.0829334E1,-5.855765E-1,-4.7746773E0,-9.042414E0,-5.1963305E0,-4.417328E0,-9.144312E0,2.6345716E0,5.8045315E1,-2.0402658E0,-1.3760409E1,-4.6388885E-1,-1.3422537E1,-2.1628585E0,-7.4606323E0,-5.3672028E0,2.1211166E0,-2.4366057E0,-7.462721E0,2.855863E0,-3.9497253E1,3.5564046E0,1.4746292E1,-7.239225E-2,-3.209597E0,-4.38562E-1,-2.737666E0,-4.12428E-1,-2.009063E0,-1.3236303E0,-5.626781E-1,9.681675E-1,-3.318325E-1,7.193165E-1,-1.8976027E0,5.9828347E-1,-1.2374706E1,-2.5671723E0,-9.817974E0],"categories":[],"categories_nodes":[],"categories_segments":[],"categories_sizes":[],"default_left":[0,0,0,0,0,0,0,0,0,0,0,0,0,0,0,0,0,0,0,0,0,0,0,0,0,0,0,0,0,0,0,0,0,0,0,0,0,0,0,0,0,0,0,0,0,0,0,0,0,0,0,0,0,0,0],"id":22,"left_children":[1,3,-1,5,7,9,11,13,15,17,19,21,-1,23,25,-1,-1,27,-1,29,-1,31,33,35,37,-1,-1,39,41,-1,43,45,47,-1,49,51,53,-1,-1,-1,-1,-1,-1,-1,-1,-1,-1,-1,-1,-1,-1,-1,-1,-1,-1],"loss_changes":[1.9381611E4,1.5092285E4,0E0,6.208634E3,1.9983844E4,5.96676E3,4.3377637E2,1.912101E4,2.7944453E3,5.947579E3,1.6074639E3,2.51521E2,0E0,1.8356248E4,1.6658672E3,0E0,0E0,5.8219663E3,0E0,4.5441162E1,0E0,1.23177185E2,2.6166357E2,1.7836617E4,2.4783594E3,0E0,0E0,5.8666924E3,7.445068E1,0E0,3.5602673E2,3.2495544E1,3.8875652E1,0E0,1.0868455E3,1.6786133E4,1.927415E3,0E0,0E0,0E0,0E0,0E0,0E0,0E0,0E0,0E0,0E0,0E0,0E0,0E0,0E0,0E0,0E0,0E0,0E0],"parents":[2147483647,0,0,1,1,3,3,4,4,5,5,6,6,7,7,8,8,9,9,10,10,11,11,13,13,14,14,17,17,19,19,21,21,22,22,23,23,24,24,27,27,28,28,30,30,31,31,32,32,34,34,35,35,36,36],"right_children":[2,4,-1,6,8,10,12,14,16,18,20,22,-1,24,26,-1,-1,28,-1,30,-1,32,34,36,38,-1,-1,40,42,-1,44,46,48,-1,50,52,54,-1,-1,-1,-1,-1,-1,-1,-1,-1,-1,-1,-1,-1,-1,-1,-1,-1,-1],"split_conditions":[3E4,1.5E3,1.9718678E1,1E0,1E0,1E0,1.4E3,1E0,1.52E3,1E0,1.11E3,1.115E3,-3.330237E0,1E0,1.61E3,-1.4852763E0,-1.0829334E1,1E0,-4.7746773E0,7.11E2,-5.1963305E0,1.103E3,1.153E3,1E0,2.225E3,-2.0402658E0,-1.3760409E1,1E0,9.57E2,-2.1628585E0,9.45E2,1.065E3,1.11E3,-2.4366057E0,1.18E3,1E0,1.839E3,3.5564046E0,1.4746292E1,-7.239225E-2,-3.209597E0,-4.38562E-1,-2.737666E0,-4.12428E-1,-2.009063E0,-1.3236303E0,-5.626781E-1,9.681675E-1,-3.318325E-1,7.193165E-1,-1.8976027E0,5.9828347E-1,-1.2374706E1,-2.5671723E0,-9.817974E0],"split_indices":[0,0,0,197,11,61,0,64,0,55,0,0,0,27,0,0,0,45,0,0,0,0,0,123,0,0,0,20,0,0,0,0,0,0,0,14,0,0,0,0,0,0,0,0,0,0,0,0,0,0,0,0,0,0,0],"split_type":[0,0,0,0,0,0,0,0,0,0,0,0,0,0,0,0,0,0,0,0,0,0,0,0,0,0,0,0,0,0,0,0,0,0,0,0,0,0,0,0,0,0,0,0,0,0,0,0,0,0,0,0,0,0,0],"sum_hessian":[5.8E3,5.799E3,1E0,3.882E3,1.917E3,3.79E3,9.2E1,1.909E3,8E0,3.74E3,5E1,8.5E1,7E0,1.905E3,4E0,2E0,6E0,3.73E3,1E1,4.4E1,6E0,1.7E1,6.8E1,1.9E3,5E0,1E0,3E0,3.696E3,3.4E1,1.8E1,2.6E1,1.5E1,2E0,2.2E1,4.6E1,1.891E3,9E0,2E0,3E0,3.673E3,2.3E1,1E0,3.3E1,9E0,1.7E1,9E0,6E0,1E0,1E0,7E0,3.9E1,1.888E3,3E0,3E0,6E0],"tree_param":{"num_deleted":"0","num_feature":"244","num_nodes":"55","size_leaf_vector":"1"}},{"base_weights":[1.2724477E-1,-9.8057985E-2,1.3807041E1,-1.2792711E-1,1.7036503E1,1.1699914E1,2.097699E1,-5.9280287E-2,-7.133822E0,1.3333838E1,-1.3862113E1,-1.17623396E-1,8.288933E0,-2.1540752E1,1.7374949E1,-1.7961401E-1,3.9032185E1,-2.6337118E1,2.1626527E0,1.9752209E1,-1.0520549E1,-6.706182E-2,-2.138221E1,4.2296057E0,1.1220075E1,-9.814368E0,-1.2831221E1,2.6831514E1,-3.18125E0,-2.821662E-2,6.411529E0,-3.2145607E0,-1.2761853E1,7.1710906E0,-5.384315E0,6.1457787E0,-4.7488747E0,-1.6277287E0,9.100922E0],"categories":[],"categories_nodes":[],"categories_segments":[],"categories_sizes":[],"default_left":[0,0,0,0,0,0,0,0,0,0,0,0,0,0,0,0,0,0,0,0,0,0,0,0,0,0,0,0,0,0,0,0,0,0,0,0,0,0,0],"id":23,"left_children":[1,3,5,7,-1,9,-1,11,-1,13,-1,15,-1,17,19,21,23,25,-1,27,-1,29,31,-1,-1,-1,33,35,37,-1,-1,-1,-1,-1,-1,-1,-1,-1,-1],"loss_changes":[1.7880592E4,1.4550633E4,1.6812656E4,1.3921763E4,0E0,1.323412E4,0E0,1.3799984E4,0E0,1.3340018E4,0E0,1.38161875E4,0E0,1.8366069E3,1.4846502E4,1.3558083E4,1.5608389E3,2.1338242E3,0E0,1.3235945E4,0E0,1.344686E4,5.7322803E3,0E0,0E0,0E0,5.767373E3,1.2950668E4,5.1974443E3,0E0,0E0,0E0,0E0,0E0,0E0,0E0,0E0,0E0,0E0],"parents":[2147483647,0,0,1,1,2,2,3,3,5,5,7,7,9,9,11,11,13,13,14,14,15,15,16,16,17,17,19,19,21,21,22,22,26,26,27,27,28,28],"right_children":[2,4,6,8,-1,10,-1,12,-1,14,-1,16,-1,18,20,22,24,26,-1,28,-1,30,32,-1,-1,-1,34,36,38,-1,-1,-1,-1,-1,-1,-1,-1,-1,-1],"split_conditions":[3.96E3,1E1,1E0,1E0,1.7036503E1,1E0,2.097699E1,1E0,-7.133822E0,4E0,-1.3862113E1,1E0,8.288933E0,1E0,1E0,1E0,2.5855E3,4.2E3,2.1626527E0,6E0,-1.0520549E1,1E0,1.635E3,4.2296057E0,1.1220075E1,-9.814368E0,4.75E3,1E0,1.6E1,-2.821662E-2,6.411529E0,-3.2145607E0,-1.2761853E1,7.1710906E0,-5.384315E0,6.1457787E0,-4.7488747E0,-1.6277287E0,9.100922E0],"split_indices":[0,2,168,63,0,8,0,149,0,1,0,67,0,69,12,89,0,0,0,1,0,33,0,0,0,0,0,138,1,0,0,0,0,0,0,0,0,0,0],"split_type":[0,0,0,0,0,0,0,0,0,0,0,0,0,0,0,0,0,0,0,0,0,0,0,0,0,0,0,0,0,0,0,0,0,0,0,0,0,0,0],"sum_hessian":[5.8E3,5.707E3,9.3E1,5.706E3,1E0,9.2E1,1E0,5.696E3,1E1,9.1E1,1E0,5.689E3,7E0,9E0,8.2E1,5.681E3,8E0,8E0,1E0,8E1,2E0,5.652E3,2.9E1,5E0,3E0,2E0,6E0,6.1E1,1.9E1,5.64E3,1.2E1,2.7E1,2E0,1E0,5E0,5.7E1,4E0,1.8E1,1E0],"tree_param":{"num_deleted":"0","num_feature":"244","num_nodes":"39","size_leaf_vector":"1"}},{"base_weights":[1.0587121E-1,7.635111E-2,1.7132238E1,-3.9268892E-2,2.0283014E1,-1.671765E-1,1.6994177E1,1.3764794E1,1.617539E1,-3.4778945E-2,-1.6164005E1,1.1599107E1,3.6086765E1,2.4367752E0,3.2772095E0,-7.323762E-2,5.455639E1,-8.455121E0,-3.2045948E1,5.085612E0,9.508016E0,1.71465E0,7.6908603E0,3.397316E0,-3.3264694E-1,-1.339825E-1,3.4364285E1,2.9926476E0,1.2553271E1,-7.1106615E0,-1.3320078E1,-3.8581505E0,-7.298894E0,-7.8622184E0,1.0928105E1,-1.043396E-1,1.0348457E0,-3.697848E-2,8.212798E0,3.8333452E0,1.7114233E1,-1.4513291E0,-3.1691056E-1,-3.057542E0,-3.4819183E-1,-4.3329164E-1,-1.9253739E0,5.6492496E0,1.8713839E0,5.9184915E-1,-6.23151E-1],"categories":[],"categories_nodes":[],"categories_segments":[],"categories_sizes":[],"default_left":[0,0,0,0,0,0,0,0,0,0,0,0,0,0,0,0,0,0,0,0,0,0,0,0,0,0,0,0,0,0,0,0,0,0,0,0,0,0,0,0,0,0,0,0,0,0,0,0,0,0,0],"id":24,"left_children":[1,3,-1,5,7,9,11,13,-1,15,17,19,21,23,-1,25,27,29,31,-1,33,-1,-1,35,-1,37,39,-1,-1,41,43,-1,-1,45,47,49,-1,-1,-1,-1,-1,-1,-1,-1,-1,-1,-1,-1,-1,-1,-1],"loss_changes":[1.4644471E4,1.3551305E4,0E0,1.2569624E4,1.1920575E4,1.2126767E4,4.0106797E3,8.8057275E2,0E0,1.1929178E4,5.4833525E3,7.703452E2,2.5657324E2,3.3218117E1,0E0,1.1880339E4,3.610459E2,1.2112964E2,1.471211E2,0E0,8.752722E2,0E0,0E0,3.7872696E1,0E0,1.1895566E4,6.142078E3,0E0,0E0,1.1089722E1,1.1008533E2,0E0,0E0,9.29689E0,5.520027E2,3.689747E1,0E0,0E0,0E0,0E0,0E0,0E0,0E0,0E0,0E0,0E0,0E0,0E0,0E0,0E0,0E0],"parents":[2147483647,0,0,1,1,3,3,4,4,5,5,6,6,7,7,9,9,10,10,11,11,12,12,13,13,15,15,16,16,17,17,18,18,20,20,23,23,25,25,26,26,29,29,30,30,33,33,34,34,35,35],"right_children":[2,4,-1,6,8,10,12,14,-1,16,18,20,22,24,-1,26,28,30,32,-1,34,-1,-1,36,-1,38,40,-1,-1,42,44,-1,-1,46,48,50,-1,-1,-1,-1,-1,-1,-1,-1,-1,-1,-1,-1,-1,-1,-1],"split_conditions":[3E4,1E0,1.7132238E1,1E0,2.5855E3,1E0,4E0,6.93E2,1.617539E1,1E0,1.287E3,2E0,1.352E3,6.33E2,3.2772095E0,1E0,6.15E2,1.205E3,1.61E3,5.085612E0,1.27E3,1.71465E0,7.6908603E0,5.95E2,-3.3264694E-1,1E0,4.2E3,2.9926476E0,1.2553271E1,3E0,1.244E3,-3.8581505E0,-7.298894E0,1.205E3,1.318E3,5E2,1.0348457E0,-3.697848E-2,8.212798E0,3.8333452E0,1.7114233E1,-1.4513291E0,-3.1691056E-1,-3.057542E0,-3.4819183E-1,-4.3329164E-1,-1.9253739E0,